{"learner":{"attributes":{"best_iteration":"316","best_ntree_limit":"317","best_score":"13.283529795420401","scikit_learn":"{\"n_estimators\": 500, \"objective\": \"reg:squarederror\", \"max_depth\": null, \"max_leaves\": null, \"max_bin\": null, \"grow_policy\": null, \"learning_rate\": 0.01, \"verbosity\": null, \"booster\": null, \"tree_method\": null, \"gamma\": null, \"min_child_weight\": null, \"max_delta_step\": null, \"subsample\": null, \"sampling_method\": null, \"colsample_bytree\": null, \"colsample_bylevel\": null, \"colsample_bynode\": null, \"reg_alpha\": null, \"reg_lambda\": null, \"scale_pos_weight\": null, \"base_score\": 0.5, \"missing\": NaN, \"num_parallel_tree\": null, \"random_state\": null, \"n_jobs\": null, \"monotone_constraints\": null, \"interaction_constraints\": null, \"importance_type\": null, \"gpu_id\": null, \"validate_parameters\": null, \"predictor\": null, \"enable_categorical\": false, \"feature_types\": null, \"max_cat_to_onehot\": null, \"max_cat_threshold\": null, \"eval_metric\": null, \"early_stopping_rounds\": 50, \"callbacks\": null, \"evals_result_\": {\"validation_0\": {\"rmse\": [27.137848811636527, 26.91641056060492, 26.697533021942643, 26.481194396512468, 26.267381127844605, 26.054949952329945, 25.846238557930484, 25.63870615587209, 25.433770402209163, 25.232120323804445, 25.03148848548851, 24.83320817177903, 24.63727702596007, 24.443448222197087, 24.251763894816197, 24.062481522463074, 23.875003089831726, 23.68986197595344, 23.50677130601758, 23.326308638745893, 23.1474330212297, 22.9708323206112, 22.796223107107863, 22.62369125050371, 22.453614844027612, 22.285716967296423, 22.119409142934472, 21.955414905657303, 21.79288768886305, 21.63226990723313, 21.473552586929333, 21.31674665901455, 21.161864160106937, 21.009128208129074, 20.858426046572593, 20.70888997931304, 20.561489914361402, 20.41611318391846, 20.272011956977003, 20.13002982691014, 19.990711988936475, 19.853223374707028, 19.716503974391003, 19.582414540606347, 19.448955602383524, 19.317981008254613, 19.18802981982496, 19.06066183014204, 18.933868662768262, 18.81014055168051, 18.686683622263555, 18.564837162494918, 18.445846810953586, 18.327124730136195, 18.209965465989377, 18.095299660861222, 17.980992867034523, 17.86837312522168, 17.758196434369253, 17.648322543489183, 17.53994347568018, 17.43318850737679, 17.328740081518447, 17.224455211297617, 17.12208853478371, 17.021825879302266, 16.921927773286747, 16.822777691863042, 16.725672389312543, 16.630184586902974, 16.535576486304084, 16.441666446113462, 16.35007212597179, 16.258489335892477, 16.16851383227796, 16.080738386280526, 15.993035684872115, 15.906365173946805, 15.822180734730257, 15.7383080352851, 15.655579948396484, 15.574248866338678, 15.494095570973174, 15.415154833169566, 15.33764402097535, 15.260795019123595, 15.184614359558198, 15.110702802890277, 15.037521670999366, 14.965259156055101, 14.894168205332598, 14.824953879649605, 14.75479169766804, 14.685799285039659, 14.617535073245167, 14.549845963718564, 14.483218118423054, 14.41823818983795, 14.354309335145166, 14.29037252360707, 14.226912402568512, 14.164451662100392, 14.103686616799953, 14.04270043212246, 13.98441242727346, 13.926594570086293, 13.868460140978085, 13.813044059312409, 13.75662110572046, 13.701352597082384, 13.647488765558938, 13.595249929099136, 13.54375309179495, 13.492350659763634, 13.44271990322883, 13.391516356814336, 13.341073551457901, 13.292293781271189, 13.245078264907221, 13.19892248584319, 13.1536982697119, 13.10807049935893, 13.06293535332764, 13.019151122475641, 12.973656256329757, 12.931284586840203, 12.889216557778516, 12.847116129362211, 12.804391192653753, 12.762827329117874, 12.723544646729238, 12.684319988092604, 12.645202633655083, 12.607928678332488, 12.569038979916863, 12.529978006985473, 12.491371032382595, 12.453652759777803, 12.41613289559572, 12.3793377616068, 12.343243935364045, 12.307413315014296, 12.272022001004359, 12.237319723263607, 12.203218409918506, 12.169622323134409, 12.136743492908517, 12.105596873489578, 12.07361382564848, 12.042384244012206, 12.01114146797119, 11.98072905017695, 11.950981031335559, 11.921499322092922, 11.893001553622561, 11.86416812978203, 11.836406943823365, 11.809268468169057, 11.782999666109328, 11.754695972945859, 11.727555917331351, 11.701323376523627, 11.675400668161698, 11.649590732759421, 11.625221374640242, 11.601332508706626, 11.575829974242367, 11.551828378578264, 11.527531604665423, 11.50412466100094, 11.480530691727113, 11.456641172016797, 11.433083324381979, 11.410403033867398, 11.388307560657891, 11.365631790888475, 11.342947589482229, 11.321713537730663, 11.30084269773503, 11.279938027793314, 11.260316296544438, 11.239598149258429, 11.220521872191181, 11.201824022667852, 11.183400375438959, 11.165316218328877, 11.146212897005832, 11.127109012002359, 11.109836745390812, 11.091407664366693, 11.074689063658013, 11.057216448787687, 11.04105959076392, 11.024585016893003, 11.00777172718899, 10.991254478472511, 10.975028067887463, 10.959086468585154, 10.943412815338917, 10.928377058009666, 10.913218691830547, 10.89899195084063, 10.884736762499406, 10.87095302988589, 10.858143257114849, 10.844018316938273, 10.830107552466758, 10.816344414606085, 10.803396411405481, 10.79063635027342, 10.777931683858517, 10.765563195717354, 10.75330268041616, 10.742148826675194, 10.730353669361318, 10.719242615453728, 10.708256613129397, 10.69768444221, 10.68707139913861, 10.675863473165474, 10.664681047367473, 10.653673436295762, 10.643077434394842, 10.632715654207823, 10.622500636362135, 10.611574648618344, 10.601931631771818, 10.592152112077455, 10.582023041760037, 10.571745698753267, 10.562708122861237, 10.552610705001818, 10.544382372738978, 10.53510527066074, 10.527134070814846, 10.518196107729093, 10.510472825587982, 10.502242833358922, 10.494155783261062, 10.486209523259788, 10.478401020858069, 10.47061384078369, 10.462979647323795, 10.456092781907968, 10.448052164903663, 10.441297884865008, 10.433762767433072, 10.42669963269577, 10.419380813173154, 10.412504573105615, 10.403147906412606, 10.394001895187003, 10.386807738447496, 10.380153835514314, 10.373071402079951, 10.366685291902208, 10.357209869088756, 10.350272393336462, 10.341956042675566, 10.334963709043777, 10.328221074270012, 10.320682733506235, 10.31053007667803, 10.303171434230054, 10.293273452684106, 10.286297344741042, 10.280219382150538, 10.273308513940227, 10.267768352680358, 10.258604550138497, 10.253070534452851, 10.243922333466285, 10.238445937338527, 10.23204813894581, 10.226810102907468, 10.218010059834047, 10.209349145649046, 10.203231770881676, 10.19830306397688, 10.19352049448175, 10.188817867191744, 10.184501054569044, 10.180026272227781, 10.17181458544673, 10.167141229120062, 10.158890082122804, 10.15471363672745, 10.149809889416725, 10.145229181392322, 10.140479568698245, 10.136027669282615, 10.131548757461662, 10.127519825914376, 10.12046304055121, 10.116544936441308, 10.109835318849527, 10.103021590262895, 10.097679139494177, 10.09358259581165, 10.088320460030001, 10.084872705066202, 10.079037833564806, 10.075127287124051, 10.069345715320908, 10.066077060139722, 10.06218684096219, 10.058829034185047, 10.052698431173559, 10.047291408508318, 10.043680665790031, 10.039262361125665, 10.035986479265063, 10.0295341050036, 10.025588299143468, 10.019992939685112, 10.01694636546123, 10.013771697205211, 10.010377557519844, 10.00509427666024, 9.99967730839155, 9.994797005567387, 9.990545901631782, 9.983577439791494, 9.978174242494731, 9.975226239927876, 9.971209200263312, 9.966586195638547, 9.962156812910578, 9.958866374724456, 9.955159144051173, 9.951796601130367, 9.948492899180293, 9.944695619829606, 9.942088706190031, 9.94008230694683, 9.9381105245644, 9.93560826750561, 9.931498096474717, 9.929607387646982, 9.92774934938317, 9.923592328741302, 9.920830816039569, 9.918468565573775, 9.915084635552937, 9.911047664477588, 9.908340171866168, 9.903963077299625, 9.900701673251495, 9.897079755949893, 9.894838362379224, 9.890589989393808, 9.889409180452494, 9.887665839626026, 9.884997044225985, 9.882851828332653, 9.881690093091915, 9.878146384073215, 9.87706106178685, 9.874568072935556, 9.872426754426318, 9.871410127299676, 9.86840551004792, 9.866938945367908, 9.863524831608876, 9.862056496378491, 9.860550518870971, 9.858584056982998]}, \"validation_1\": {\"rmse\": [18.936875547196575, 18.844315882421473, 18.753165726487186, 18.663409678217512, 18.573883672431254, 18.488380881992978, 18.40157670773364, 18.318705731302956, 18.23604379096269, 18.154263695406023, 18.07301855233172, 17.994075986545308, 17.91534984202441, 17.829040681723903, 17.74436337938473, 17.660785930836653, 17.586244718376726, 17.505335275425786, 17.440505893171316, 17.362048409713736, 17.286962762500256, 17.225277076009778, 17.149603529811912, 17.084169486057036, 17.01862769897948, 16.951436653697925, 16.88097085890724, 16.82322072063412, 16.754919754317154, 16.69228157566372, 16.63224438268245, 16.570715737408918, 16.50430256135912, 16.452400049406506, 16.39527750383474, 16.332354406880423, 16.2758449261959, 16.228281398769642, 16.1703729591997, 16.115544439422862, 16.05742628279714, 16.004924224223352, 15.952953773190421, 15.897233075521545, 15.846528019101315, 15.796991985344828, 15.744824456513502, 15.697134553391184, 15.645970924599627, 15.593335771122533, 15.548144610873965, 15.504032627875988, 15.454019630137473, 15.411240152979456, 15.365429952975994, 15.318174700532456, 15.277745383829668, 15.23829133941166, 15.193445742211898, 15.152231283514851, 15.11474050014162, 15.074342929068024, 15.032570899499987, 14.997618266983512, 14.96564321760719, 14.925683547212214, 14.88850197858308, 14.855666028603453, 14.820024898857044, 14.78292306199282, 14.748484313719198, 14.71791128446376, 14.682768846163361, 14.6567390483279, 14.62895087384149, 14.597011795000586, 14.568852520102487, 14.543869419693367, 14.513680952087075, 14.487897529167856, 14.459145963047542, 14.430435830595009, 14.405164137101606, 14.382330289002526, 14.3615089257388, 14.334899552295735, 14.313198341448297, 14.293800922024685, 14.267852701690725, 14.248594795286138, 14.223637117066486, 14.205085989849627, 14.18216090765926, 14.16371569347622, 14.141157279428835, 14.124148986615594, 14.105355038792958, 14.093148067859437, 14.076335084181286, 14.060450270437853, 14.045403037905869, 14.026543229098893, 14.006613104163185, 13.993448476311707, 13.983431854726067, 13.971318901626482, 13.957956491716555, 13.946534368980535, 13.929360144431536, 13.91719768604989, 13.901267716047917, 13.892201314990025, 13.881683542931494, 13.86655554320528, 13.85653685550762, 13.846218299887619, 13.829700200302232, 13.81500429503673, 13.808033922803261, 13.799122598135797, 13.787681741139165, 13.774603309975072, 13.762263348467341, 13.755536175905505, 13.740792831651047, 13.733144082631496, 13.720856531816837, 13.716121569458988, 13.70194030190675, 13.693427625145862, 13.681487283070332, 13.67004660299177, 13.665876671363845, 13.658191598173957, 13.653051950928, 13.6443852005085, 13.630858938949624, 13.622723215910888, 13.61031881529319, 13.602312815467307, 13.590947472817005, 13.579265200852031, 13.571794858061644, 13.564508337419456, 13.560106777955806, 13.548544519634326, 13.542394820026656, 13.53509024601609, 13.527808257479933, 13.51740625756388, 13.513093045941453, 13.506976130150216, 13.501486022107137, 13.495774036205843, 13.49136828434245, 13.484339968760546, 13.478496436274911, 13.474484187074912, 13.469069680318093, 13.460520830456712, 13.45648211712871, 13.450537097448997, 13.446123512708557, 13.440255695675992, 13.4382444292475, 13.43549453840178, 13.430401125479918, 13.428052877866639, 13.427125114784165, 13.423933292046557, 13.423082236662804, 13.416620431054586, 13.416044919349785, 13.415639495862418, 13.414987423623447, 13.413289161281435, 13.41193249993824, 13.411999216835554, 13.410995964034596, 13.40957142239894, 13.408409122642805, 13.40689384761305, 13.406647086195465, 13.405629148478637, 13.40544176906591, 13.405427830490263, 13.400119048092577, 13.394761413867704, 13.394849960666273, 13.394005044827372, 13.39425617955624, 13.394590950821383, 13.395050613343233, 13.392705092106928, 13.388175039551518, 13.383797322496346, 13.379568324725794, 13.375406465504506, 13.371607176338117, 13.367406106227074, 13.363073982086838, 13.363477188555818, 13.360285662553995, 13.36078017795267, 13.360702904847864, 13.354749063335134, 13.355820653276753, 13.350091996019758, 13.344505725492983, 13.345768206471483, 13.343004248016834, 13.344191039330399, 13.346129658486685, 13.346415050483174, 13.347698562576499, 13.34460687807446, 13.347013141644215, 13.34316683279574, 13.345545566603986, 13.345193588333595, 13.34379150756837, 13.346513926615703, 13.34931528133612, 13.350154967384098, 13.352168194435995, 13.35495780352263, 13.357068423769638, 13.358055862309453, 13.355427732024154, 13.358071757668466, 13.355844607933484, 13.353972342063837, 13.35408684485477, 13.34949021545271, 13.349698303537608, 13.345004066508745, 13.345206759629228, 13.345629371809428, 13.346027922926728, 13.34649853728185, 13.346944395187853, 13.346608045208647, 13.345787546809314, 13.345961979513262, 13.34551418997719, 13.345046908641375, 13.341092434075984, 13.341345709673465, 13.337489786743838, 13.3379387325195, 13.339408455295306, 13.339986108622334, 13.340931643104655, 13.340893832621513, 13.340992999973398, 13.337497379873342, 13.337476468144391, 13.333031132399421, 13.333964133423322, 13.335203406841865, 13.333394687872781, 13.330804412349066, 13.330821888842925, 13.328168511611734, 13.328213622138156, 13.32589977178531, 13.325941787386618, 13.323677681146961, 13.3244496057894, 13.324242122070299, 13.324752967995769, 13.324870608780074, 13.324658954456433, 13.322146885248868, 13.322699825600624, 13.322852043937583, 13.323017044447466, 13.320383208671034, 13.320748033786591, 13.32144400566173, 13.322142521404308, 13.322149417370994, 13.32175664637497, 13.321754658107194, 13.319880477435305, 13.318877151996304, 13.319030258982126, 13.318576429086052, 13.318237039598944, 13.317626065365948, 13.316901814056198, 13.311539534085936, 13.312072266021232, 13.311906180680355, 13.312457827291237, 13.312395410022829, 13.312202016744303, 13.312066113018755, 13.308545084871367, 13.307828024305271, 13.303394728359367, 13.303017849036044, 13.299627315328005, 13.301484863497187, 13.297295080581309, 13.298400709934741, 13.294787750263506, 13.29298556110904, 13.291899125131783, 13.28878190384914, 13.287578133242024, 13.288614585257644, 13.286077613625185, 13.284242510681477, 13.285672968492698, 13.28534183772973, 13.283529795420401, 13.284973846787574, 13.286498614534784, 13.28862469925854, 13.288079981508538, 13.290064938981043, 13.28865223737499, 13.289831303506308, 13.292019170374262, 13.295709471018661, 13.29543979045828, 13.296002336307684, 13.297139181380496, 13.298156147491401, 13.300367622668713, 13.302618369426451, 13.305716518956336, 13.308297870488747, 13.311052016546217, 13.313829353469819, 13.31724254429566, 13.317039400422882, 13.31985054027717, 13.322682468111886, 13.323534822244373, 13.326263247277062, 13.328249907326951, 13.327959888668483, 13.328606948844772, 13.327911758298843, 13.328242115346296, 13.327731850255171, 13.32657824531586, 13.326092377421782, 13.326606839012113, 13.327563941336093, 13.326812964550188, 13.32752149007753, 13.32762798343604, 13.32806799039189, 13.328194877610697, 13.329050840347682, 13.330399604401968, 13.32992563129524, 13.33099510126619, 13.331102913632582, 13.332391119529987, 13.332512864582338, 13.334391660068002, 13.335469597859905, 13.336178018173722]}}, \"_estimator_type\": \"regressor\"}"},"feature_names":["Season","StartHour","StartDayofWeek","StartQuarter","StartDayofyear","StartMonth","StartYear","StartDayofMonth","StartWeekofYear"],"feature_types":["int","int","int","int","int","int","int","int","int"],"gradient_booster":{"model":{"gbtree_model_param":{"num_parallel_tree":"1","num_trees":"367","size_leaf_vector":"0"},"tree_info":[0,0,0,0,0,0,0,0,0,0,0,0,0,0,0,0,0,0,0,0,0,0,0,0,0,0,0,0,0,0,0,0,0,0,0,0,0,0,0,0,0,0,0,0,0,0,0,0,0,0,0,0,0,0,0,0,0,0,0,0,0,0,0,0,0,0,0,0,0,0,0,0,0,0,0,0,0,0,0,0,0,0,0,0,0,0,0,0,0,0,0,0,0,0,0,0,0,0,0,0,0,0,0,0,0,0,0,0,0,0,0,0,0,0,0,0,0,0,0,0,0,0,0,0,0,0,0,0,0,0,0,0,0,0,0,0,0,0,0,0,0,0,0,0,0,0,0,0,0,0,0,0,0,0,0,0,0,0,0,0,0,0,0,0,0,0,0,0,0,0,0,0,0,0,0,0,0,0,0,0,0,0,0,0,0,0,0,0,0,0,0,0,0,0,0,0,0,0,0,0,0,0,0,0,0,0,0,0,0,0,0,0,0,0,0,0,0,0,0,0,0,0,0,0,0,0,0,0,0,0,0,0,0,0,0,0,0,0,0,0,0,0,0,0,0,0,0,0,0,0,0,0,0,0,0,0,0,0,0,0,0,0,0,0,0,0,0,0,0,0,0,0,0,0,0,0,0,0,0,0,0,0,0,0,0,0,0,0,0,0,0,0,0,0,0,0,0,0,0,0,0,0,0,0,0,0,0,0,0,0,0,0,0,0,0,0,0,0,0,0,0,0,0,0,0,0,0,0,0,0,0,0,0,0,0,0,0,0,0,0,0,0,0,0,0,0,0,0,0,0,0,0,0,0,0,0,0,0,0,0,0,0,0,0,0,0,0],"trees":[{"base_weights":[2.1166553E1,1.0562897E1,3.3425625E1,2.5647058E1,1.0216601E1,2.6911667E1,3.8480263E1,-0E0,2.9066668E1,8.288462E0,1.1330247E1,2.9163841E1,2.347984E1,3.938973E1,3.169E1,-2.5E-1,2.5E-1,3.1035715E1,7.5E-1,5.677419E0,1.1291667E1,1.4886719E1,1.0030641E1,2.9485632E1,7.875E0,2.384836E1,6.666667E-1,3.7342785E1,4.1981884E1,3.390698E1,1.58125E1,1.25E0,3.323077E1,6.8089886E0,4.0895524E0,1.2572816E1,6.516667E0,1.6612904E1,1.0013889E1,8.523196E0,1.1731928E1,2.4172413E1,3.033904E1,-2.5E-1,1.0666667E1,2.4871286E1,1.8068182E1,3.0303572E1,3.82994E1,2.625E0,2.32E1,7.7578125E0,4.2115383E0,4.6944447E0,1.4642857E0,1.3494506E1,5.1538463E0,4.1666666E-1,7.72E0,1.2292683E1,1.964151E1,1.175E1,7.8421054E0,1.1457627E1,7.1875E0,1.242446E1,7.875E0,2.5053572E1,-2.5E-1,1.4625E1,3.0566433E1,1.575E1,2.5E-1,3.0365385E1,2.2664474E1,3.3333334E-1,1.9825E1,-0E0,3.2634617E1,2.6375E1,5.25E0],"categories":[],"categories_nodes":[],"categories_segments":[],"categories_sizes":[],"default_left":[1,1,1,1,1,1,1,1,1,1,1,1,1,1,1,0,0,1,0,1,1,1,1,1,1,1,0,1,0,0,1,0,0,1,1,1,1,1,1,1,1,1,1,0,1,1,1,1,0,0,1,0,0,0,0,0,0,0,0,0,0,0,0,0,0,0,0,0,0,0,0,0,0,0,0,0,0,0,0,0,0],"id":0,"left_children":[1,3,5,7,9,11,13,15,17,19,21,23,25,27,29,-1,-1,31,-1,33,35,37,39,41,43,45,-1,47,-1,-1,49,-1,-1,51,53,55,57,59,61,63,65,67,69,-1,71,73,75,77,-1,-1,79,-1,-1,-1,-1,-1,-1,-1,-1,-1,-1,-1,-1,-1,-1,-1,-1,-1,-1,-1,-1,-1,-1,-1,-1,-1,-1,-1,-1,-1,-1],"loss_changes":[1.9008375E5,3.8489297E3,2.1321E4,1.4909492E3,1.561625E3,1.6339531E3,1.0984375E3,2.5E-1,8.130762E2,2.1785605E3,2.0969727E3,9.8034375E2,1.0265938E3,1.8859375E2,1.2238477E3,0E0,0E0,8.737998E2,0E0,2.5065527E2,7.255762E2,9.102988E2,8.206992E2,5.5609375E1,9.339584E1,2.7196875E2,0E0,1.4578125E2,0E0,0E0,7.184812E2,0E0,0E0,1.8667041E2,9.9522095E1,6.3476465E2,2.1699329E2,9.753867E2,4.3591797E1,6.780322E2,3.4555078E2,6.3034375E2,7.465625E1,0E0,1.5491666E2,5.3635156E2,6.7884375E2,1.9778906E3,0E0,0E0,1.4648755E2,0E0,0E0,0E0,0E0,0E0,0E0,0E0,0E0,0E0,0E0,0E0,0E0,0E0,0E0,0E0,0E0,0E0,0E0,0E0,0E0,0E0,0E0,0E0,0E0,0E0,0E0,0E0,0E0,0E0,0E0],"parents":[2147483647,0,0,1,1,2,2,3,3,4,4,5,5,6,6,7,7,8,8,9,9,10,10,11,11,12,12,13,13,14,14,17,17,19,19,20,20,21,21,22,22,23,23,24,24,25,25,27,27,30,30,33,33,34,34,35,35,36,36,37,37,38,38,39,39,40,40,41,41,42,42,44,44,45,45,46,46,47,47,50,50],"right_children":[2,4,6,8,10,12,14,16,18,20,22,24,26,28,30,-1,-1,32,-1,34,36,38,40,42,44,46,-1,48,-1,-1,50,-1,-1,52,54,56,58,60,62,64,66,68,70,-1,72,74,76,78,-1,-1,80,-1,-1,-1,-1,-1,-1,-1,-1,-1,-1,-1,-1,-1,-1,-1,-1,-1,-1,-1,-1,-1,-1,-1,-1,-1,-1,-1,-1,-1,-1],"split_conditions":[2.29E2,1.25E1,3.045E2,5E-1,2.0215E3,2.05E1,2.45E1,1.4E1,2.5E0,9.35E1,1.55E1,5.5E0,3.025E2,3.265E2,1.75E1,-2.5E-3,2.5E-3,2.0195E3,7.5E-3,1.95E1,2.05E1,8.05E1,6.1E1,2.0185E3,7E0,3.5E0,6.666667E-3,8.5E0,4.1981882E-1,3.3906978E-1,5E-1,1.2499999E-2,3.323077E-1,2.0195E3,2.75E1,9.5E0,1.16E2,1.45E1,1.35E1,2.55E1,2.65E1,2.905E2,2.385E2,-2.5E-3,1.55E1,8.5E0,2.69E2,3.075E2,3.82994E-1,2.625E-2,1.9E1,7.757812E-2,4.2115383E-2,4.6944447E-2,1.4642857E-2,1.3494505E-1,5.153846E-2,4.1666664E-3,7.7199996E-2,1.22926824E-1,1.964151E-1,1.175E-1,7.842105E-2,1.1457627E-1,7.1875E-2,1.242446E-1,7.875E-2,2.505357E-1,-2.5E-3,1.4625E-1,3.0566433E-1,1.575E-1,2.5E-3,3.0365384E-1,2.2664474E-1,3.3333334E-3,1.9825001E-1,-0E0,3.2634616E-1,2.6375E-1,5.25E-2],"split_indices":[4,4,4,2,6,7,7,1,2,4,1,2,4,4,1,0,0,6,0,7,7,4,4,6,1,2,0,1,0,0,2,0,0,6,7,1,4,7,1,4,7,4,4,0,1,1,4,4,0,0,1,0,0,0,0,0,0,0,0,0,0,0,0,0,0,0,0,0,0,0,0,0,0,0,0,0,0,0,0,0,0],"split_type":[0,0,0,0,0,0,0,0,0,0,0,0,0,0,0,0,0,0,0,0,0,0,0,0,0,0,0,0,0,0,0,0,0,0,0,0,0,0,0,0,0,0,0,0,0,0,0,0,0,0,0,0,0,0,0,0,0,0,0,0,0,0,0,0,0,0,0,0,0,0,0,0,0,0,0,0,0,0,0,0,0],"sum_hessian":[1.464E3,7.86E2,6.78E2,1.6E1,7.7E2,2.99E2,3.79E2,2E0,1.4E1,2.85E2,4.85E2,1.76E2,1.23E2,3.3E2,4.9E1,1E0,1E0,1.3E1,1E0,1.54E2,1.31E2,1.27E2,3.58E2,1.73E2,3E0,1.21E2,2E0,1.93E2,1.37E2,4.2E1,7E0,1E0,1.2E1,8.8E1,6.6E1,1.02E2,2.9E1,9.2E1,3.5E1,1.93E2,1.65E2,2.8E1,1.45E2,1E0,2E0,1E2,2.1E1,2.7E1,1.66E2,3E0,4E0,6.3E1,2.5E1,5.3E1,1.3E1,9E1,1.2E1,5E0,2.4E1,4E1,5.2E1,1.7E1,1.8E1,5.8E1,1.35E2,1.38E2,2.7E1,2.7E1,1E0,3E0,1.42E2,1E0,1E0,2.5E1,7.5E1,2E0,1.9E1,2E0,2.5E1,3E0,1E0],"tree_param":{"num_deleted":"0","num_feature":"9","num_nodes":"81","size_leaf_vector":"0"}},{"base_weights":[2.0958378E1,1.0459436E1,3.3096386E1,2.5411314E1,1.0116192E1,2.664787E1,3.8100224E1,-0E0,2.8799488E1,8.207148E0,1.1218806E1,2.8877048E1,2.3250996E1,3.899924E1,3.1386732E1,-2.4875E-1,2.4875E-1,3.0749987E1,7.4625003E-1,5.6218147E0,1.1180779E1,1.4741877E1,9.931419E0,2.91948E1,7.835625E0,2.3615875E1,6.622222E-1,3.697301E1,4.156511E1,3.3575794E1,1.5697188E1,1.24375E0,3.2924026E1,6.742244E0,4.049576E0,1.2448898E1,6.454212E0,1.6450209E1,9.919192E0,8.438925E0,1.1615831E1,2.3939243E1,3.0038746E1,-2.4875E-1,1.0613334E1,2.4627825E1,1.7896664E1,3.001219E1,3.7918697E1,2.6053126E0,2.303125E1,7.6814466E0,4.171043E0,4.6483693E0,1.4506888E0,1.3361044E1,5.106272E0,4.1319445E-1,7.645888E0,1.2172754E1,1.9448801E1,1.1639028E1,7.767812E0,1.1344993E1,7.1161532E0,1.2301109E1,7.7990627E0,2.4811985E1,-2.4875E-1,1.4515312E1,3.0262907E1,1.567125E1,2.4875E-1,3.007341E1,2.2440811E1,3.311111E-1,1.9636663E1,-0E0,3.232082E1,2.6177189E1,5.22375E0],"categories":[],"categories_nodes":[],"categories_segments":[],"categories_sizes":[],"default_left":[1,1,1,1,1,1,1,1,1,1,1,1,1,1,1,0,0,1,0,1,1,1,1,1,1,1,0,1,0,0,1,0,0,1,1,1,1,1,1,1,1,1,1,0,1,1,1,1,0,0,1,0,0,0,0,0,0,0,0,0,0,0,0,0,0,0,0,0,0,0,0,0,0,0,0,0,0,0,0,0,0],"id":1,"left_children":[1,3,5,7,9,11,13,15,17,19,21,23,25,27,29,-1,-1,31,-1,33,35,37,39,41,43,45,-1,47,-1,-1,49,-1,-1,51,53,55,57,59,61,63,65,67,69,-1,71,73,75,77,-1,-1,79,-1,-1,-1,-1,-1,-1,-1,-1,-1,-1,-1,-1,-1,-1,-1,-1,-1,-1,-1,-1,-1,-1,-1,-1,-1,-1,-1,-1,-1,-1],"loss_changes":[1.8634788E5,3.7819297E3,2.089425E4,1.463666E3,1.5308359E3,1.60025E3,1.0694375E3,2.4750625E-1,7.978203E2,2.1358633E3,2.057871E3,9.5465625E2,1.0063906E3,1.8409375E2,1.1902266E3,0E0,0E0,8.5711816E2,0E0,2.457417E2,7.1083984E2,8.913867E2,8.044922E2,5.2640625E1,9.246422E1,2.6532812E2,0E0,1.390625E2,0E0,0E0,7.081295E2,0E0,0E0,1.8288477E2,9.752197E1,6.216221E2,2.1280884E2,9.561035E2,4.279077E1,6.650156E2,3.3824414E2,6.183574E2,6.878125E1,0E0,1.5337137E2,5.279961E2,6.659072E2,1.9400371E3,0E0,0E0,1.4336328E2,0E0,0E0,0E0,0E0,0E0,0E0,0E0,0E0,0E0,0E0,0E0,0E0,0E0,0E0,0E0,0E0,0E0,0E0,0E0,0E0,0E0,0E0,0E0,0E0,0E0,0E0,0E0,0E0,0E0,0E0],"parents":[2147483647,0,0,1,1,2,2,3,3,4,4,5,5,6,6,7,7,8,8,9,9,10,10,11,11,12,12,13,13,14,14,17,17,19,19,20,20,21,21,22,22,23,23,24,24,25,25,27,27,30,30,33,33,34,34,35,35,36,36,37,37,38,38,39,39,40,40,41,41,42,42,44,44,45,45,46,46,47,47,50,50],"right_children":[2,4,6,8,10,12,14,16,18,20,22,24,26,28,30,-1,-1,32,-1,34,36,38,40,42,44,46,-1,48,-1,-1,50,-1,-1,52,54,56,58,60,62,64,66,68,70,-1,72,74,76,78,-1,-1,80,-1,-1,-1,-1,-1,-1,-1,-1,-1,-1,-1,-1,-1,-1,-1,-1,-1,-1,-1,-1,-1,-1,-1,-1,-1,-1,-1,-1,-1,-1],"split_conditions":[2.29E2,1.25E1,3.045E2,5E-1,2.0215E3,2.05E1,2.45E1,1.4E1,2.5E0,9.35E1,1.55E1,5.5E0,3.025E2,3.265E2,1.75E1,-2.4875E-3,2.4875E-3,2.0195E3,7.4625E-3,1.95E1,2.05E1,8.05E1,6.1E1,2.0185E3,7E0,3.5E0,6.622222E-3,8.5E0,4.1565108E-1,3.3575794E-1,5E-1,1.2437499E-2,3.2924026E-1,2.0195E3,2.75E1,9.5E0,1.16E2,1.45E1,1.35E1,2.55E1,2.65E1,2.905E2,2.385E2,-2.4875E-3,1.55E1,8.5E0,2.69E2,3.075E2,3.7918696E-1,2.6053125E-2,1.9E1,7.6814465E-2,4.171043E-2,4.648369E-2,1.4506888E-2,1.3361044E-1,5.106272E-2,4.1319444E-3,7.645888E-2,1.2172754E-1,1.94488E-1,1.1639027E-1,7.7678114E-2,1.1344992E-1,7.116153E-2,1.2301109E-1,7.799063E-2,2.4811985E-1,-2.4875E-3,1.4515312E-1,3.0262905E-1,1.567125E-1,2.4875E-3,3.007341E-1,2.244081E-1,3.311111E-3,1.9636662E-1,-0E0,3.2320818E-1,2.617719E-1,5.22375E-2],"split_indices":[4,4,4,2,6,7,7,1,2,4,1,2,4,4,1,0,0,6,0,7,7,4,4,6,1,2,0,1,0,0,2,0,0,6,7,1,4,7,1,4,7,4,4,0,1,1,4,4,0,0,1,0,0,0,0,0,0,0,0,0,0,0,0,0,0,0,0,0,0,0,0,0,0,0,0,0,0,0,0,0,0],"split_type":[0,0,0,0,0,0,0,0,0,0,0,0,0,0,0,0,0,0,0,0,0,0,0,0,0,0,0,0,0,0,0,0,0,0,0,0,0,0,0,0,0,0,0,0,0,0,0,0,0,0,0,0,0,0,0,0,0,0,0,0,0,0,0,0,0,0,0,0,0,0,0,0,0,0,0,0,0,0,0,0,0],"sum_hessian":[1.464E3,7.86E2,6.78E2,1.6E1,7.7E2,2.99E2,3.79E2,2E0,1.4E1,2.85E2,4.85E2,1.76E2,1.23E2,3.3E2,4.9E1,1E0,1E0,1.3E1,1E0,1.54E2,1.31E2,1.27E2,3.58E2,1.73E2,3E0,1.21E2,2E0,1.93E2,1.37E2,4.2E1,7E0,1E0,1.2E1,8.8E1,6.6E1,1.02E2,2.9E1,9.2E1,3.5E1,1.93E2,1.65E2,2.8E1,1.45E2,1E0,2E0,1E2,2.1E1,2.7E1,1.66E2,3E0,4E0,6.3E1,2.5E1,5.3E1,1.3E1,9E1,1.2E1,5E0,2.4E1,4E1,5.2E1,1.7E1,1.8E1,5.8E1,1.35E2,1.38E2,2.7E1,2.7E1,1E0,3E0,1.42E2,1E0,1E0,2.5E1,7.5E1,2E0,1.9E1,2E0,2.5E1,3E0,1E0],"tree_param":{"num_deleted":"0","num_feature":"9","num_nodes":"81","size_leaf_vector":"0"}},{"base_weights":[2.075225E1,1.0356989E1,3.2770393E1,2.5177736E1,1.0016768E1,2.6386663E1,3.7723946E1,9.934108E-9,2.8534767E1,8.126631E0,1.1108461E1,2.859308E1,2.3024385E1,3.861263E1,3.108638E1,-2.4750625E-1,2.4750626E-1,3.0466892E1,7.425188E-1,5.566755E0,1.1070981E1,1.4598445E1,9.833179E0,2.8906836E1,7.796447E0,2.3385658E1,6.578074E-1,3.6606903E1,4.115247E1,3.3247845E1,1.5582724E1,1.2375312E0,3.262011E1,6.676153E0,4.0099907E0,1.2326202E1,6.3923564E0,1.6289106E1,9.825391E0,8.355488E0,1.1500884E1,2.3708319E1,2.9741426E1,-2.4750625E-1,1.05602665E1,2.4386745E1,1.7726772E1,2.9723612E1,3.7541786E1,2.5857725E0,2.2863739E1,7.6058326E0,4.1309366E0,4.6027465E0,1.4372181E0,1.3228902E1,5.0591373E0,4.0975115E-1,7.5724874E0,1.2053995E1,1.9257982E1,1.1529103E1,7.6942215E0,1.1233465E1,7.0455155E0,1.2178984E1,7.7238574E0,2.4572723E1,-2.4750625E-1,1.4406447E1,2.9962395E1,1.5592894E1,2.4750626E-1,2.9784243E1,2.2219355E1,3.289037E-1,1.9450115E1,-0E0,3.2010044E1,2.598086E1,5.1976314E0],"categories":[],"categories_nodes":[],"categories_segments":[],"categories_sizes":[],"default_left":[1,1,1,1,1,1,1,1,1,1,1,1,1,1,1,0,0,1,0,1,1,1,1,1,1,1,0,1,0,0,1,0,0,1,1,1,1,1,1,1,1,1,1,0,1,1,1,1,0,0,1,0,0,0,0,0,0,0,0,0,0,0,0,0,0,0,0,0,0,0,0,0,0,0,0,0,0,0,0,0,0],"id":2,"left_children":[1,3,5,7,9,11,13,15,17,19,21,23,25,27,29,-1,-1,31,-1,33,35,37,39,41,43,45,-1,47,-1,-1,49,-1,-1,51,53,55,57,59,61,63,65,67,69,-1,71,73,75,77,-1,-1,79,-1,-1,-1,-1,-1,-1,-1,-1,-1,-1,-1,-1,-1,-1,-1,-1,-1,-1,-1,-1,-1,-1,-1,-1,-1,-1,-1,-1,-1,-1],"loss_changes":[1.8268562E5,3.7161094E3,2.0476062E4,1.4368818E3,1.5006484E3,1.5672344E3,1.041125E3,2.4503738E-1,7.8284863E2,2.094E3,2.0195E3,9.295625E2,9.8659375E2,1.7975E2,1.1574336E3,0E0,0E0,8.4075195E2,0E0,2.409248E2,6.964033E2,8.728633E2,7.8860547E2,4.98125E1,9.15419E1,2.5883594E2,0E0,1.3253125E2,0E0,0E0,6.979276E2,0E0,0E0,1.7917554E2,9.5561646E1,6.08751E2,2.0870483E2,9.372031E2,4.200464E1,6.52249E2,3.310918E2,6.066006E2,6.3078125E1,0E0,1.5184149E2,5.197539E2,6.532173E2,1.9029082E3,0E0,0E0,1.402981E2,0E0,0E0,0E0,0E0,0E0,0E0,0E0,0E0,0E0,0E0,0E0,0E0,0E0,0E0,0E0,0E0,0E0,0E0,0E0,0E0,0E0,0E0,0E0,0E0,0E0,0E0,0E0,0E0,0E0,0E0],"parents":[2147483647,0,0,1,1,2,2,3,3,4,4,5,5,6,6,7,7,8,8,9,9,10,10,11,11,12,12,13,13,14,14,17,17,19,19,20,20,21,21,22,22,23,23,24,24,25,25,27,27,30,30,33,33,34,34,35,35,36,36,37,37,38,38,39,39,40,40,41,41,42,42,44,44,45,45,46,46,47,47,50,50],"right_children":[2,4,6,8,10,12,14,16,18,20,22,24,26,28,30,-1,-1,32,-1,34,36,38,40,42,44,46,-1,48,-1,-1,50,-1,-1,52,54,56,58,60,62,64,66,68,70,-1,72,74,76,78,-1,-1,80,-1,-1,-1,-1,-1,-1,-1,-1,-1,-1,-1,-1,-1,-1,-1,-1,-1,-1,-1,-1,-1,-1,-1,-1,-1,-1,-1,-1,-1,-1],"split_conditions":[2.29E2,1.25E1,3.045E2,5E-1,2.0215E3,2.05E1,2.45E1,1.4E1,2.5E0,9.35E1,1.55E1,5.5E0,3.025E2,3.265E2,1.75E1,-2.4750624E-3,2.4750626E-3,2.0195E3,7.4251876E-3,1.95E1,2.05E1,8.05E1,6.1E1,2.0185E3,7E0,3.5E0,6.578074E-3,8.5E0,4.1152468E-1,3.3247843E-1,5E-1,1.2375312E-2,3.2620108E-1,2.0195E3,2.75E1,9.5E0,1.16E2,1.45E1,1.35E1,2.55E1,2.65E1,2.905E2,2.385E2,-2.4750624E-3,1.55E1,8.5E0,2.69E2,3.075E2,3.7541786E-1,2.5857724E-2,1.9E1,7.605832E-2,4.1309364E-2,4.6027463E-2,1.437218E-2,1.3228902E-1,5.0591372E-2,4.0975115E-3,7.572487E-2,1.2053995E-1,1.9257982E-1,1.1529103E-1,7.694221E-2,1.1233465E-1,7.0455156E-2,1.21789835E-1,7.7238575E-2,2.4572723E-1,-2.4750624E-3,1.4406447E-1,2.9962394E-1,1.5592894E-1,2.4750626E-3,2.978424E-1,2.2219354E-1,3.289037E-3,1.9450115E-1,-0E0,3.2010043E-1,2.598086E-1,5.1976312E-2],"split_indices":[4,4,4,2,6,7,7,1,2,4,1,2,4,4,1,0,0,6,0,7,7,4,4,6,1,2,0,1,0,0,2,0,0,6,7,1,4,7,1,4,7,4,4,0,1,1,4,4,0,0,1,0,0,0,0,0,0,0,0,0,0,0,0,0,0,0,0,0,0,0,0,0,0,0,0,0,0,0,0,0,0],"split_type":[0,0,0,0,0,0,0,0,0,0,0,0,0,0,0,0,0,0,0,0,0,0,0,0,0,0,0,0,0,0,0,0,0,0,0,0,0,0,0,0,0,0,0,0,0,0,0,0,0,0,0,0,0,0,0,0,0,0,0,0,0,0,0,0,0,0,0,0,0,0,0,0,0,0,0,0,0,0,0,0,0],"sum_hessian":[1.464E3,7.86E2,6.78E2,1.6E1,7.7E2,2.99E2,3.79E2,2E0,1.4E1,2.85E2,4.85E2,1.76E2,1.23E2,3.3E2,4.9E1,1E0,1E0,1.3E1,1E0,1.54E2,1.31E2,1.27E2,3.58E2,1.73E2,3E0,1.21E2,2E0,1.93E2,1.37E2,4.2E1,7E0,1E0,1.2E1,8.8E1,6.6E1,1.02E2,2.9E1,9.2E1,3.5E1,1.93E2,1.65E2,2.8E1,1.45E2,1E0,2E0,1E2,2.1E1,2.7E1,1.66E2,3E0,4E0,6.3E1,2.5E1,5.3E1,1.3E1,9E1,1.2E1,5E0,2.4E1,4E1,5.2E1,1.7E1,1.8E1,5.8E1,1.35E2,1.38E2,2.7E1,2.7E1,1E0,3E0,1.42E2,1E0,1E0,2.5E1,7.5E1,2E0,1.9E1,2E0,2.5E1,3E0,1E0],"tree_param":{"num_deleted":"0","num_feature":"9","num_nodes":"81","size_leaf_vector":"0"}},{"base_weights":[2.0548155E1,1.0255546E1,3.2447617E1,2.4946314E1,9.918323E0,2.6128021E1,3.7351383E1,-0E0,2.827249E1,8.046905E0,1.0999202E1,2.8311913E1,2.2799982E1,3.8229847E1,3.078892E1,-2.4626872E-1,2.4626872E-1,3.0186409E1,7.388061E-1,5.512234E0,1.0962261E1,1.44564085E1,9.73591E0,2.8621716E1,7.7574644E0,2.3157684E1,6.5342206E-1,3.624442E1,4.0743927E1,3.2923096E1,1.5469101E1,1.2313436E0,3.2319004E1,6.61071E0,3.970792E0,1.2204716E1,6.331094E0,1.6129581E1,9.732477E0,8.272875E0,1.1387074E1,2.3479626E1,2.944705E1,-2.4626872E-1,1.0507465E1,2.4148027E1,1.7558495E1,2.9437809E1,3.7168613E1,2.5663793E0,2.2697458E1,7.5309625E0,4.091216E0,4.5575714E0,1.4238726E0,1.3098065E1,5.012438E0,4.0633655E-1,7.4997916E0,1.1936396E1,1.9069035E1,1.14202175E1,7.621329E0,1.11230345E1,6.9755783E0,1.205807E1,7.6493773E0,2.4335773E1,-2.4626872E-1,1.42984E1,2.9664865E1,1.5514929E1,2.4626872E-1,2.9497856E1,2.2000086E1,3.2671103E-1,1.9265337E1,-0E0,3.1702255E1,2.5786001E1,5.1716433E0],"categories":[],"categories_nodes":[],"categories_segments":[],"categories_sizes":[],"default_left":[1,1,1,1,1,1,1,1,1,1,1,1,1,1,1,0,0,1,0,1,1,1,1,1,1,1,0,1,0,0,1,0,0,1,1,1,1,1,1,1,1,1,1,0,1,1,1,1,0,0,1,0,0,0,0,0,0,0,0,0,0,0,0,0,0,0,0,0,0,0,0,0,0,0,0,0,0,0,0,0,0],"id":3,"left_children":[1,3,5,7,9,11,13,15,17,19,21,23,25,27,29,-1,-1,31,-1,33,35,37,39,41,43,45,-1,47,-1,-1,49,-1,-1,51,53,55,57,59,61,63,65,67,69,-1,71,73,75,77,-1,-1,79,-1,-1,-1,-1,-1,-1,-1,-1,-1,-1,-1,-1,-1,-1,-1,-1,-1,-1,-1,-1,-1,-1,-1,-1,-1,-1,-1,-1,-1,-1],"loss_changes":[1.7909531E5,3.6514219E3,2.0066188E4,1.4105889E3,1.4710469E3,1.5349062E3,1.013625E3,2.4259312E-1,7.681572E2,2.052961E3,1.9818398E3,9.050781E2,9.671797E2,1.7546875E2,1.1254688E3,0E0,0E0,8.246963E2,0E0,2.3620215E2,6.8226074E2,8.5472656E2,7.7303516E2,4.7046875E1,9.062875E1,2.524961E2,0E0,1.2621875E2,0E0,0E0,6.878738E2,0E0,0E0,1.7554199E2,9.364075E1,5.9614453E2,2.0468005E2,9.186719E2,4.1233154E1,6.397256E2,3.2408984E2,5.950674E2,5.7570312E1,0E0,1.5032687E2,5.1164844E2,6.4076855E2,1.8664883E3,0E0,0E0,1.3729004E2,0E0,0E0,0E0,0E0,0E0,0E0,0E0,0E0,0E0,0E0,0E0,0E0,0E0,0E0,0E0,0E0,0E0,0E0,0E0,0E0,0E0,0E0,0E0,0E0,0E0,0E0,0E0,0E0,0E0,0E0],"parents":[2147483647,0,0,1,1,2,2,3,3,4,4,5,5,6,6,7,7,8,8,9,9,10,10,11,11,12,12,13,13,14,14,17,17,19,19,20,20,21,21,22,22,23,23,24,24,25,25,27,27,30,30,33,33,34,34,35,35,36,36,37,37,38,38,39,39,40,40,41,41,42,42,44,44,45,45,46,46,47,47,50,50],"right_children":[2,4,6,8,10,12,14,16,18,20,22,24,26,28,30,-1,-1,32,-1,34,36,38,40,42,44,46,-1,48,-1,-1,50,-1,-1,52,54,56,58,60,62,64,66,68,70,-1,72,74,76,78,-1,-1,80,-1,-1,-1,-1,-1,-1,-1,-1,-1,-1,-1,-1,-1,-1,-1,-1,-1,-1,-1,-1,-1,-1,-1,-1,-1,-1,-1,-1,-1,-1],"split_conditions":[2.29E2,1.25E1,3.045E2,5E-1,2.0215E3,2.05E1,2.45E1,1.4E1,2.5E0,9.35E1,1.55E1,5.5E0,3.025E2,3.265E2,1.75E1,-2.4626872E-3,2.4626872E-3,2.0195E3,7.388061E-3,1.95E1,2.05E1,8.05E1,6.1E1,2.0185E3,7E0,3.5E0,6.5342207E-3,8.5E0,4.0743926E-1,3.2923096E-1,5E-1,1.2313436E-2,3.2319003E-1,2.0195E3,2.75E1,9.5E0,1.16E2,1.45E1,1.35E1,2.55E1,2.65E1,2.905E2,2.385E2,-2.4626872E-3,1.55E1,8.5E0,2.69E2,3.075E2,3.7168613E-1,2.5663793E-2,1.9E1,7.530962E-2,4.091216E-2,4.5575712E-2,1.4238725E-2,1.3098066E-1,5.0124377E-2,4.0633655E-3,7.499792E-2,1.19363956E-1,1.9069034E-1,1.1420217E-1,7.6213285E-2,1.1123034E-1,6.9755785E-2,1.20580696E-1,7.649377E-2,2.4335773E-1,-2.4626872E-3,1.42984E-1,2.9664865E-1,1.5514928E-1,2.4626872E-3,2.9497856E-1,2.2000085E-1,3.2671103E-3,1.9265337E-1,-0E0,3.1702253E-1,2.5786E-1,5.1716432E-2],"split_indices":[4,4,4,2,6,7,7,1,2,4,1,2,4,4,1,0,0,6,0,7,7,4,4,6,1,2,0,1,0,0,2,0,0,6,7,1,4,7,1,4,7,4,4,0,1,1,4,4,0,0,1,0,0,0,0,0,0,0,0,0,0,0,0,0,0,0,0,0,0,0,0,0,0,0,0,0,0,0,0,0,0],"split_type":[0,0,0,0,0,0,0,0,0,0,0,0,0,0,0,0,0,0,0,0,0,0,0,0,0,0,0,0,0,0,0,0,0,0,0,0,0,0,0,0,0,0,0,0,0,0,0,0,0,0,0,0,0,0,0,0,0,0,0,0,0,0,0,0,0,0,0,0,0,0,0,0,0,0,0,0,0,0,0,0,0],"sum_hessian":[1.464E3,7.86E2,6.78E2,1.6E1,7.7E2,2.99E2,3.79E2,2E0,1.4E1,2.85E2,4.85E2,1.76E2,1.23E2,3.3E2,4.9E1,1E0,1E0,1.3E1,1E0,1.54E2,1.31E2,1.27E2,3.58E2,1.73E2,3E0,1.21E2,2E0,1.93E2,1.37E2,4.2E1,7E0,1E0,1.2E1,8.8E1,6.6E1,1.02E2,2.9E1,9.2E1,3.5E1,1.93E2,1.65E2,2.8E1,1.45E2,1E0,2E0,1E2,2.1E1,2.7E1,1.66E2,3E0,4E0,6.3E1,2.5E1,5.3E1,1.3E1,9E1,1.2E1,5E0,2.4E1,4E1,5.2E1,1.7E1,1.8E1,5.8E1,1.35E2,1.38E2,2.7E1,2.7E1,1E0,3E0,1.42E2,1E0,1E0,2.5E1,7.5E1,2E0,1.9E1,2E0,2.5E1,3E0,1E0],"tree_param":{"num_deleted":"0","num_feature":"9","num_nodes":"81","size_leaf_vector":"0"}},{"base_weights":[2.0346066E1,1.0155096E1,3.212802E1,2.4717018E1,9.820845E0,2.5871918E1,3.6982502E1,-0E0,2.801262E1,7.967961E0,1.0891018E1,2.8033514E1,2.257777E1,3.785086E1,3.049432E1,-2.4503738E-1,2.4503738E-1,2.9908506E1,7.3511213E-1,5.4582477E0,1.08546095E1,1.4315754E1,9.639605E0,2.8339409E1,7.7186775E0,2.2931936E1,6.490659E-1,3.5885525E1,4.033944E1,3.260152E1,1.5356316E1,1.2251868E0,3.202067E1,6.545909E0,3.931977E0,1.2084427E1,6.270418E0,1.597162E1,9.640442E0,8.334584E0,1.1464978E1,2.3253136E1,2.915559E1,-2.4503738E-1,1.0454928E1,2.3911646E1,1.7391815E1,2.915475E1,3.6799152E1,2.5471315E0,2.25324E1,7.4568295E0,4.0518775E0,4.51284E0,1.4106508E0,1.2968524E1,4.9661694E0,4.029504E-1,7.4277935E0,1.1819943E1,1.8881943E1,1.131236E1,7.549127E0,1.101369E1,7.261024E0,1.2276954E1,7.5756154E0,2.4101109E1,-2.4503738E-1,1.4191161E1,2.937029E1,1.5437355E1,2.4503738E-1,2.9214222E1,2.178298E1,3.2453296E-1,1.9082317E1,-0E0,3.1397425E1,2.5592607E1,5.145785E0],"categories":[],"categories_nodes":[],"categories_segments":[],"categories_sizes":[],"default_left":[1,1,1,1,1,1,1,1,1,1,1,1,1,1,1,0,0,1,0,1,1,1,1,1,1,1,0,1,0,0,1,0,0,1,1,1,1,1,1,1,1,1,1,0,1,1,1,1,0,0,1,0,0,0,0,0,0,0,0,0,0,0,0,0,0,0,0,0,0,0,0,0,0,0,0,0,0,0,0,0,0],"id":4,"left_children":[1,3,5,7,9,11,13,15,17,19,21,23,25,27,29,-1,-1,31,-1,33,35,37,39,41,43,45,-1,47,-1,-1,49,-1,-1,51,53,55,57,59,61,63,65,67,69,-1,71,73,75,77,-1,-1,79,-1,-1,-1,-1,-1,-1,-1,-1,-1,-1,-1,-1,-1,-1,-1,-1,-1,-1,-1,-1,-1,-1,-1,-1,-1,-1,-1,-1,-1,-1],"loss_changes":[1.7557556E5,3.5878594E3,1.96645E4,1.3847773E3,1.4420391E3,1.50325E3,9.8671875E2,2.4017327E-1,7.5374023E2,2.0127266E3,1.9448828E3,8.8115625E2,9.4814844E2,1.7128125E2,1.0943047E3,0E0,0E0,8.089424E2,0E0,2.3157227E2,6.6840234E2,8.3696094E2,7.596328E2,4.4390625E1,8.972475E1,2.463164E2,0E0,1.20125E2,0E0,0E0,6.7796533E2,0E0,0E0,1.7198193E2,9.175842E1,5.838008E2,2.0073291E2,9.005117E2,4.0475586E1,5.326572E2,3.7123242E2,5.837529E2,5.2273438E1,0E0,1.4882736E2,5.0365234E2,6.285571E2,1.8307676E3,0E0,0E0,1.3433911E2,0E0,0E0,0E0,0E0,0E0,0E0,0E0,0E0,0E0,0E0,0E0,0E0,0E0,0E0,0E0,0E0,0E0,0E0,0E0,0E0,0E0,0E0,0E0,0E0,0E0,0E0,0E0,0E0,0E0,0E0],"parents":[2147483647,0,0,1,1,2,2,3,3,4,4,5,5,6,6,7,7,8,8,9,9,10,10,11,11,12,12,13,13,14,14,17,17,19,19,20,20,21,21,22,22,23,23,24,24,25,25,27,27,30,30,33,33,34,34,35,35,36,36,37,37,38,38,39,39,40,40,41,41,42,42,44,44,45,45,46,46,47,47,50,50],"right_children":[2,4,6,8,10,12,14,16,18,20,22,24,26,28,30,-1,-1,32,-1,34,36,38,40,42,44,46,-1,48,-1,-1,50,-1,-1,52,54,56,58,60,62,64,66,68,70,-1,72,74,76,78,-1,-1,80,-1,-1,-1,-1,-1,-1,-1,-1,-1,-1,-1,-1,-1,-1,-1,-1,-1,-1,-1,-1,-1,-1,-1,-1,-1,-1,-1,-1,-1,-1],"split_conditions":[2.29E2,1.25E1,3.045E2,5E-1,2.0215E3,2.05E1,2.45E1,1.4E1,2.5E0,9.35E1,1.55E1,5.5E0,3.025E2,3.265E2,1.75E1,-2.4503737E-3,2.4503737E-3,2.0195E3,7.351121E-3,1.95E1,2.05E1,8.05E1,6.65E1,2.0185E3,7E0,3.5E0,6.490659E-3,8.5E0,4.0339437E-1,3.260152E-1,5E-1,1.2251868E-2,3.202067E-1,2.0195E3,2.75E1,9.5E0,1.16E2,1.45E1,1.35E1,2.55E1,2.65E1,2.905E2,2.385E2,-2.4503737E-3,1.55E1,8.5E0,2.69E2,3.075E2,3.679915E-1,2.5471315E-2,1.9E1,7.4568294E-2,4.0518776E-2,4.5128398E-2,1.4106508E-2,1.2968524E-1,4.9661692E-2,4.029504E-3,7.427793E-2,1.1819943E-1,1.8881942E-1,1.13123596E-1,7.549127E-2,1.101369E-1,7.261024E-2,1.22769535E-1,7.5756155E-2,2.4101108E-1,-2.4503737E-3,1.4191161E-1,2.937029E-1,1.5437354E-1,2.4503737E-3,2.921422E-1,2.178298E-1,3.2453295E-3,1.9082317E-1,-0E0,3.1397423E-1,2.5592607E-1,5.145785E-2],"split_indices":[4,4,4,2,6,7,7,1,2,4,1,2,4,4,1,0,0,6,0,7,7,4,4,6,1,2,0,1,0,0,2,0,0,6,7,1,4,7,1,4,7,4,4,0,1,1,4,4,0,0,1,0,0,0,0,0,0,0,0,0,0,0,0,0,0,0,0,0,0,0,0,0,0,0,0,0,0,0,0,0,0],"split_type":[0,0,0,0,0,0,0,0,0,0,0,0,0,0,0,0,0,0,0,0,0,0,0,0,0,0,0,0,0,0,0,0,0,0,0,0,0,0,0,0,0,0,0,0,0,0,0,0,0,0,0,0,0,0,0,0,0,0,0,0,0,0,0,0,0,0,0,0,0,0,0,0,0,0,0,0,0,0,0,0,0],"sum_hessian":[1.464E3,7.86E2,6.78E2,1.6E1,7.7E2,2.99E2,3.79E2,2E0,1.4E1,2.85E2,4.85E2,1.76E2,1.23E2,3.3E2,4.9E1,1E0,1E0,1.3E1,1E0,1.54E2,1.31E2,1.27E2,3.58E2,1.73E2,3E0,1.21E2,2E0,1.93E2,1.37E2,4.2E1,7E0,1E0,1.2E1,8.8E1,6.6E1,1.02E2,2.9E1,9.2E1,3.5E1,2.12E2,1.46E2,2.8E1,1.45E2,1E0,2E0,1E2,2.1E1,2.7E1,1.66E2,3E0,4E0,6.3E1,2.5E1,5.3E1,1.3E1,9E1,1.2E1,5E0,2.4E1,4E1,5.2E1,1.7E1,1.8E1,5.8E1,1.54E2,1.19E2,2.7E1,2.7E1,1E0,3E0,1.42E2,1E0,1E0,2.5E1,7.5E1,2E0,1.9E1,2E0,2.5E1,3E0,1E0],"tree_param":{"num_deleted":"0","num_feature":"9","num_nodes":"81","size_leaf_vector":"0"}},{"base_weights":[2.0145971E1,1.005564E1,3.1811575E1,2.4489838E1,9.724334E0,2.561833E1,3.6617268E1,9.934108E-9,2.775515E1,7.8897915E0,1.0783912E1,2.775786E1,2.2357721E1,3.7475628E1,3.0202555E1,-2.4381219E-1,2.438122E-1,2.963317E1,7.314366E-1,5.4047894E0,1.0748015E1,1.4176469E1,9.5442705E0,2.805989E1,7.6800838E0,2.2708387E1,6.447388E-1,3.5530186E1,3.993897E1,3.228309E1,1.5244359E1,1.2190609E0,3.1725096E1,6.481743E0,3.893541E0,1.1965323E1,6.2103243E0,1.5815205E1,9.549276E0,8.107623E0,1.1165748E1,2.302883E1,2.886702E1,-2.4381219E-1,1.0402653E1,1.9377392E1,2.4469551E1,2.8874418E1,3.6433365E1,2.528028E0,2.2368551E1,7.383426E0,4.0129175E0,4.468547E0,1.397552E0,1.2840264E1,4.9203277E0,3.995925E-1,7.356487E0,1.1704627E1,1.8696686E1,1.1205521E1,7.477609E0,1.0905419E1,6.834259E0,1.1823326E1,7.5025644E0,2.3868704E1,-2.4381219E-1,1.4084727E1,2.9078642E1,1.53601675E1,2.438122E-1,2.656407E1,8.347174E0,7.7271366E0,2.6056068E1,-0E0,3.1095528E1,2.5400661E1,5.120056E0],"categories":[],"categories_nodes":[],"categories_segments":[],"categories_sizes":[],"default_left":[1,1,1,1,1,1,1,1,1,1,1,1,1,1,1,0,0,1,0,1,1,1,1,1,1,1,0,1,0,0,1,0,0,1,1,1,1,1,1,1,1,1,1,0,1,1,1,1,0,0,1,0,0,0,0,0,0,0,0,0,0,0,0,0,0,0,0,0,0,0,0,0,0,0,0,0,0,0,0,0,0],"id":5,"left_children":[1,3,5,7,9,11,13,15,17,19,21,23,25,27,29,-1,-1,31,-1,33,35,37,39,41,43,45,-1,47,-1,-1,49,-1,-1,51,53,55,57,59,61,63,65,67,69,-1,71,73,75,77,-1,-1,79,-1,-1,-1,-1,-1,-1,-1,-1,-1,-1,-1,-1,-1,-1,-1,-1,-1,-1,-1,-1,-1,-1,-1,-1,-1,-1,-1,-1,-1,-1],"loss_changes":[1.7212494E5,3.5253984E3,1.9270875E4,1.3594375E3,1.4136172E3,1.4722344E3,9.6046875E2,2.3777755E-1,7.395928E2,1.9732793E3,1.9085938E3,8.578594E2,9.294961E2,1.6721875E2,1.0639141E3,0E0,0E0,7.9348926E2,0E0,2.2703223E2,6.548291E2,8.1956836E2,7.4575586E2,4.178125E1,8.882971E1,2.4154297E2,0E0,1.1421875E2,0E0,0E0,6.682003E2,0E0,0E0,1.684939E2,8.991394E1,5.7170996E2,1.9686182E2,8.827051E2,3.9732178E1,6.166172E2,3.111621E2,5.726572E2,4.7164062E1,0E0,1.473428E2,3.5039844E3,1.8173867E3,1.7957305E3,0E0,0E0,1.3144385E2,0E0,0E0,0E0,0E0,0E0,0E0,0E0,0E0,0E0,0E0,0E0,0E0,0E0,0E0,0E0,0E0,0E0,0E0,0E0,0E0,0E0,0E0,0E0,0E0,0E0,0E0,0E0,0E0,0E0,0E0],"parents":[2147483647,0,0,1,1,2,2,3,3,4,4,5,5,6,6,7,7,8,8,9,9,10,10,11,11,12,12,13,13,14,14,17,17,19,19,20,20,21,21,22,22,23,23,24,24,25,25,27,27,30,30,33,33,34,34,35,35,36,36,37,37,38,38,39,39,40,40,41,41,42,42,44,44,45,45,46,46,47,47,50,50],"right_children":[2,4,6,8,10,12,14,16,18,20,22,24,26,28,30,-1,-1,32,-1,34,36,38,40,42,44,46,-1,48,-1,-1,50,-1,-1,52,54,56,58,60,62,64,66,68,70,-1,72,74,76,78,-1,-1,80,-1,-1,-1,-1,-1,-1,-1,-1,-1,-1,-1,-1,-1,-1,-1,-1,-1,-1,-1,-1,-1,-1,-1,-1,-1,-1,-1,-1,-1,-1],"split_conditions":[2.29E2,1.25E1,3.045E2,5E-1,2.0215E3,2.05E1,2.45E1,1.4E1,2.5E0,9.35E1,1.55E1,5.5E0,3.025E2,3.265E2,1.75E1,-2.438122E-3,2.438122E-3,2.0195E3,7.314366E-3,1.95E1,2.05E1,8.05E1,6.1E1,2.0185E3,7E0,2.02E3,6.447388E-3,8.5E0,3.9938968E-1,3.228309E-1,5E-1,1.2190608E-2,3.1725094E-1,2.0195E3,2.75E1,9.5E0,1.16E2,1.45E1,1.35E1,2.55E1,2.65E1,2.905E2,2.385E2,-2.438122E-3,1.55E1,4.5E0,2.715E2,3.075E2,3.6433363E-1,2.528028E-2,1.9E1,7.383426E-2,4.0129174E-2,4.4685468E-2,1.397552E-2,1.2840264E-1,4.9203277E-2,3.9959247E-3,7.3564865E-2,1.1704627E-1,1.8696685E-1,1.12055205E-1,7.477609E-2,1.0905419E-1,6.834259E-2,1.18233256E-1,7.502564E-2,2.3868704E-1,-2.438122E-3,1.4084727E-1,2.9078642E-1,1.5360168E-1,2.438122E-3,2.656407E-1,8.347174E-2,7.7271365E-2,2.605607E-1,-0E0,3.1095526E-1,2.540066E-1,5.120056E-2],"split_indices":[4,4,4,2,6,7,7,1,2,4,1,2,4,4,1,0,0,6,0,7,7,4,4,6,1,6,0,1,0,0,2,0,0,6,7,1,4,7,1,4,7,4,4,0,1,1,4,4,0,0,1,0,0,0,0,0,0,0,0,0,0,0,0,0,0,0,0,0,0,0,0,0,0,0,0,0,0,0,0,0,0],"split_type":[0,0,0,0,0,0,0,0,0,0,0,0,0,0,0,0,0,0,0,0,0,0,0,0,0,0,0,0,0,0,0,0,0,0,0,0,0,0,0,0,0,0,0,0,0,0,0,0,0,0,0,0,0,0,0,0,0,0,0,0,0,0,0,0,0,0,0,0,0,0,0,0,0,0,0,0,0,0,0,0,0],"sum_hessian":[1.464E3,7.86E2,6.78E2,1.6E1,7.7E2,2.99E2,3.79E2,2E0,1.4E1,2.85E2,4.85E2,1.76E2,1.23E2,3.3E2,4.9E1,1E0,1E0,1.3E1,1E0,1.54E2,1.31E2,1.27E2,3.58E2,1.73E2,3E0,1.21E2,2E0,1.93E2,1.37E2,4.2E1,7E0,1E0,1.2E1,8.8E1,6.6E1,1.02E2,2.9E1,9.2E1,3.5E1,1.93E2,1.65E2,2.8E1,1.45E2,1E0,2E0,4.6E1,7.5E1,2.7E1,1.66E2,3E0,4E0,6.3E1,2.5E1,5.3E1,1.3E1,9E1,1.2E1,5E0,2.4E1,4E1,5.2E1,1.7E1,1.8E1,5.8E1,1.35E2,1.38E2,2.7E1,2.7E1,1E0,3E0,1.42E2,1E0,1E0,2.7E1,1.9E1,7E0,6.8E1,2E0,2.5E1,3E0,1E0],"tree_param":{"num_deleted":"0","num_feature":"9","num_nodes":"81","size_leaf_vector":"0"}},{"base_weights":[1.9947836E1,9.95715E0,3.1498236E1,2.426475E1,9.628763E0,2.5367195E1,3.6255642E1,9.934108E-9,2.750005E1,7.8123894E0,1.0677846E1,2.7484922E1,2.2139736E1,3.710412E1,2.9913595E1,-2.4259312E-1,2.4259314E-1,2.936037E1,7.277794E-1,5.3518558E0,1.0642468E1,1.4038539E1,9.449861E0,2.7783129E1,7.6416836E0,2.2486935E1,6.404405E-1,3.5178364E1,3.9542473E1,3.1967766E1,1.5133226E1,1.2129657E0,3.1432251E1,6.418206E0,3.8554814E0,1.1847395E1,6.1508064E0,1.5660322E1,9.458973E0,8.168538E0,1.1242186E1,2.4170229E1,2.8967646E1,-2.4259312E-1,1.035064E1,2.345558E1,1.701784E1,2.859678E1,3.6071213E1,2.5090678E0,2.2205908E1,7.3107457E0,3.9743314E0,4.424689E0,1.3845748E0,1.2713273E1,4.874909E0,3.9626256E-1,7.2858644E0,1.1590435E1,1.8513247E1,1.1099691E1,7.4067683E0,1.0798214E1,7.114865E0,1.203796E1,7.4302187E0,1.5283367E1,2.4259314E-1,2.8678087E1,2.1360306E1,2.0806538E-1,1.8688414E1,-0E0,3.0796534E1,2.5210157E1,5.0944557E0],"categories":[],"categories_nodes":[],"categories_segments":[],"categories_sizes":[],"default_left":[1,1,1,1,1,1,1,1,1,1,1,1,1,1,1,0,0,1,0,1,1,1,1,1,1,1,0,1,0,0,1,0,0,1,1,1,1,1,1,1,1,0,0,0,1,1,1,1,0,0,1,0,0,0,0,0,0,0,0,0,0,0,0,0,0,0,0,0,0,0,0,0,0,0,0,0,0],"id":6,"left_children":[1,3,5,7,9,11,13,15,17,19,21,23,25,27,29,-1,-1,31,-1,33,35,37,39,41,43,45,-1,47,-1,-1,49,-1,-1,51,53,55,57,59,61,63,65,-1,-1,-1,67,69,71,73,-1,-1,75,-1,-1,-1,-1,-1,-1,-1,-1,-1,-1,-1,-1,-1,-1,-1,-1,-1,-1,-1,-1,-1,-1,-1,-1,-1,-1],"loss_changes":[1.6874212E5,3.4640156E3,1.888525E4,1.3345645E3,1.3857422E3,1.4419688E3,9.3490625E2,2.3540571E-1,7.2570703E2,1.9346074E3,1.8730039E3,8.350625E2,9.111953E2,1.6321875E2,1.034293E3,0E0,0E0,7.783262E2,0E0,2.2258203E2,6.415293E2,8.025332E2,7.32625E2,4.4484375E1,8.794365E1,2.4715234E2,0E0,1.085E2,0E0,0E0,6.58577E2,0E0,0E0,1.6507642E2,8.8106445E1,5.5986816E2,1.9306506E2,8.6525195E2,3.9002197E1,5.1335645E2,3.564746E2,0E0,0E0,0E0,1.4587308E2,4.92625E2,6.1391504E2,1.7613633E3,0E0,0E0,1.2860352E2,0E0,0E0,0E0,0E0,0E0,0E0,0E0,0E0,0E0,0E0,0E0,0E0,0E0,0E0,0E0,0E0,0E0,0E0,0E0,0E0,0E0,0E0,0E0,0E0,0E0,0E0],"parents":[2147483647,0,0,1,1,2,2,3,3,4,4,5,5,6,6,7,7,8,8,9,9,10,10,11,11,12,12,13,13,14,14,17,17,19,19,20,20,21,21,22,22,23,23,24,24,25,25,27,27,30,30,33,33,34,34,35,35,36,36,37,37,38,38,39,39,40,40,44,44,45,45,46,46,47,47,50,50],"right_children":[2,4,6,8,10,12,14,16,18,20,22,24,26,28,30,-1,-1,32,-1,34,36,38,40,42,44,46,-1,48,-1,-1,50,-1,-1,52,54,56,58,60,62,64,66,-1,-1,-1,68,70,72,74,-1,-1,76,-1,-1,-1,-1,-1,-1,-1,-1,-1,-1,-1,-1,-1,-1,-1,-1,-1,-1,-1,-1,-1,-1,-1,-1,-1,-1],"split_conditions":[2.29E2,1.25E1,3.045E2,5E-1,2.0215E3,2.05E1,2.45E1,1.4E1,2.5E0,9.35E1,1.55E1,5.5E0,3.025E2,3.265E2,1.75E1,-2.4259312E-3,2.4259314E-3,2.0195E3,7.2777937E-3,1.95E1,2.05E1,8.05E1,6.65E1,2.745E2,7E0,3.5E0,6.404405E-3,8.5E0,3.9542472E-1,3.1967765E-1,5E-1,1.2129657E-2,3.143225E-1,2.0195E3,2.75E1,9.5E0,1.16E2,1.45E1,1.35E1,2.55E1,2.65E1,2.4170229E-1,2.8967646E-1,-2.4259312E-3,1.55E1,8.5E0,2.69E2,3.075E2,3.607121E-1,2.5090678E-2,1.9E1,7.310746E-2,3.974331E-2,4.4246886E-2,1.3845747E-2,1.2713273E-1,4.874909E-2,3.9626253E-3,7.285864E-2,1.15904346E-1,1.8513246E-1,1.1099691E-1,7.406768E-2,1.0798214E-1,7.114865E-2,1.203796E-1,7.430218E-2,1.5283367E-1,2.4259314E-3,2.8678086E-1,2.1360305E-1,2.0806538E-3,1.8688414E-1,-0E0,3.0796534E-1,2.5210157E-1,5.0944556E-2],"split_indices":[4,4,4,2,6,7,7,1,2,4,1,2,4,4,1,0,0,6,0,7,7,4,4,4,1,2,0,1,0,0,2,0,0,6,7,1,4,7,1,4,7,0,0,0,1,1,4,4,0,0,1,0,0,0,0,0,0,0,0,0,0,0,0,0,0,0,0,0,0,0,0,0,0,0,0,0,0],"split_type":[0,0,0,0,0,0,0,0,0,0,0,0,0,0,0,0,0,0,0,0,0,0,0,0,0,0,0,0,0,0,0,0,0,0,0,0,0,0,0,0,0,0,0,0,0,0,0,0,0,0,0,0,0,0,0,0,0,0,0,0,0,0,0,0,0,0,0,0,0,0,0,0,0,0,0,0,0],"sum_hessian":[1.464E3,7.86E2,6.78E2,1.6E1,7.7E2,2.99E2,3.79E2,2E0,1.4E1,2.85E2,4.85E2,1.76E2,1.23E2,3.3E2,4.9E1,1E0,1E0,1.3E1,1E0,1.54E2,1.31E2,1.27E2,3.58E2,1.73E2,3E0,1.21E2,2E0,1.93E2,1.37E2,4.2E1,7E0,1E0,1.2E1,8.8E1,6.6E1,1.02E2,2.9E1,9.2E1,3.5E1,2.12E2,1.46E2,4.8E1,1.25E2,1E0,2E0,1E2,2.1E1,2.7E1,1.66E2,3E0,4E0,6.3E1,2.5E1,5.3E1,1.3E1,9E1,1.2E1,5E0,2.4E1,4E1,5.2E1,1.7E1,1.8E1,5.8E1,1.54E2,1.19E2,2.7E1,1E0,1E0,2.5E1,7.5E1,2E0,1.9E1,2E0,2.5E1,3E0,1E0],"tree_param":{"num_deleted":"0","num_feature":"9","num_nodes":"77","size_leaf_vector":"0"}},{"base_weights":[1.9751572E1,9.859633E0,3.1187807E1,2.4041733E1,9.534141E0,2.5118124E1,3.589759E1,1.9868216E-8,2.7247297E1,7.735747E0,1.0572837E1,2.7213938E1,2.192395E1,3.6736294E1,2.9627415E1,-2.4138016E-1,2.4138018E-1,2.9090084E1,7.241405E-1,5.29944E0,1.0537958E1,1.3901952E1,9.356403E0,2.7508352E1,7.603475E0,2.2267715E1,6.361709E-1,3.483003E1,3.9149914E1,3.1655521E1,1.5022911E1,1.2069008E0,3.1142107E1,6.3552923E0,3.8177936E0,1.1730628E1,6.091859E0,1.5506956E1,9.369524E0,7.9456677E0,1.094873E1,2.2560087E1,2.8302813E1,-2.4138016E-1,1.0298887E1,1.8952532E1,2.4024899E1,2.832181E1,3.571266E1,2.4902496E0,2.2044458E1,7.2387805E0,3.9361167E0,4.3812613E0,1.3717179E0,1.2587538E1,4.82991E0,3.9296034E-1,7.21592E0,1.1477358E1,1.8331608E1,1.0994861E1,7.3365993E0,1.0692062E1,6.695793E0,1.159316E1,7.35857E0,2.3393478E1,-3.8743135E-1,1.3797815E1,2.8510626E1,1.520695E1,2.4138018E-1,2.6048681E1,8.070296E0,7.499062E0,2.559275E1,-0E0,3.050041E1,2.502108E1,5.0689836E0],"categories":[],"categories_nodes":[],"categories_segments":[],"categories_sizes":[],"default_left":[1,1,1,1,1,1,1,1,1,1,1,1,1,1,1,0,0,1,0,1,1,1,1,1,1,1,0,1,0,0,1,0,0,1,1,1,1,1,1,1,1,1,1,0,1,1,1,1,0,0,1,0,0,0,0,0,0,0,0,0,0,0,0,0,0,0,0,0,0,0,0,0,0,0,0,0,0,0,0,0,0],"id":7,"left_children":[1,3,5,7,9,11,13,15,17,19,21,23,25,27,29,-1,-1,31,-1,33,35,37,39,41,43,45,-1,47,-1,-1,49,-1,-1,51,53,55,57,59,61,63,65,67,69,-1,71,73,75,77,-1,-1,79,-1,-1,-1,-1,-1,-1,-1,-1,-1,-1,-1,-1,-1,-1,-1,-1,-1,-1,-1,-1,-1,-1,-1,-1,-1,-1,-1,-1,-1,-1],"loss_changes":[1.6542281E5,3.4037188E3,1.8508812E4,1.3101445E3,1.3584297E3,1.4116875E3,9.099375E2,2.3305754E-1,7.12083E2,1.8966895E3,1.8380547E3,8.1275E2,8.932656E2,1.5934375E2,1.00541797E3,0E0,0E0,7.634512E2,0E0,2.1821924E2,6.28499E2,7.8585156E2,7.194453E2,4.553125E1,8.706639E1,2.5536328E2,0E0,1.0296875E2,0E0,0E0,6.49093E2,0E0,0E0,1.6172803E2,8.6335266E1,5.4827246E2,1.893418E2,8.4814844E2,3.8285645E1,5.943428E2,2.9875E2,5.63666E2,4.6695312E1,0E0,1.4441797E2,3.4192148E3,1.7772422E3,1.7276543E3,0E0,0E0,1.2581665E2,0E0,0E0,0E0,0E0,0E0,0E0,0E0,0E0,0E0,0E0,0E0,0E0,0E0,0E0,0E0,0E0,0E0,0E0,0E0,0E0,0E0,0E0,0E0,0E0,0E0,0E0,0E0,0E0,0E0,0E0],"parents":[2147483647,0,0,1,1,2,2,3,3,4,4,5,5,6,6,7,7,8,8,9,9,10,10,11,11,12,12,13,13,14,14,17,17,19,19,20,20,21,21,22,22,23,23,24,24,25,25,27,27,30,30,33,33,34,34,35,35,36,36,37,37,38,38,39,39,40,40,41,41,42,42,44,44,45,45,46,46,47,47,50,50],"right_children":[2,4,6,8,10,12,14,16,18,20,22,24,26,28,30,-1,-1,32,-1,34,36,38,40,42,44,46,-1,48,-1,-1,50,-1,-1,52,54,56,58,60,62,64,66,68,70,-1,72,74,76,78,-1,-1,80,-1,-1,-1,-1,-1,-1,-1,-1,-1,-1,-1,-1,-1,-1,-1,-1,-1,-1,-1,-1,-1,-1,-1,-1,-1,-1,-1,-1,-1,-1],"split_conditions":[2.29E2,1.25E1,3.045E2,5E-1,2.0215E3,2.05E1,2.45E1,1.4E1,2.5E0,9.35E1,1.55E1,5.5E0,3.025E2,3.265E2,1.75E1,-2.4138014E-3,2.4138018E-3,2.0195E3,7.241405E-3,1.95E1,2.05E1,8.05E1,6.1E1,2.0185E3,7E0,2.02E3,6.361709E-3,8.5E0,3.9149913E-1,3.165552E-1,5E-1,1.2069008E-2,3.1142107E-1,2.0195E3,2.75E1,9.5E0,1.16E2,1.45E1,1.35E1,2.55E1,2.65E1,2.905E2,2.385E2,-2.4138014E-3,1.55E1,4.5E0,2.715E2,3.075E2,3.5712662E-1,2.4902496E-2,1.9E1,7.238781E-2,3.9361168E-2,4.3812614E-2,1.3717179E-2,1.2587537E-1,4.8299097E-2,3.9296034E-3,7.21592E-2,1.1477358E-1,1.8331607E-1,1.09948605E-1,7.3365994E-2,1.0692062E-1,6.695793E-2,1.1593159E-1,7.35857E-2,2.3393477E-1,-3.8743136E-3,1.3797815E-1,2.8510624E-1,1.520695E-1,2.4138018E-3,2.604868E-1,8.070296E-2,7.4990615E-2,2.559275E-1,-0E0,3.050041E-1,2.502108E-1,5.0689835E-2],"split_indices":[4,4,4,2,6,7,7,1,2,4,1,2,4,4,1,0,0,6,0,7,7,4,4,6,1,6,0,1,0,0,2,0,0,6,7,1,4,7,1,4,7,4,4,0,1,1,4,4,0,0,1,0,0,0,0,0,0,0,0,0,0,0,0,0,0,0,0,0,0,0,0,0,0,0,0,0,0,0,0,0,0],"split_type":[0,0,0,0,0,0,0,0,0,0,0,0,0,0,0,0,0,0,0,0,0,0,0,0,0,0,0,0,0,0,0,0,0,0,0,0,0,0,0,0,0,0,0,0,0,0,0,0,0,0,0,0,0,0,0,0,0,0,0,0,0,0,0,0,0,0,0,0,0,0,0,0,0,0,0,0,0,0,0,0,0],"sum_hessian":[1.464E3,7.86E2,6.78E2,1.6E1,7.7E2,2.99E2,3.79E2,2E0,1.4E1,2.85E2,4.85E2,1.76E2,1.23E2,3.3E2,4.9E1,1E0,1E0,1.3E1,1E0,1.54E2,1.31E2,1.27E2,3.58E2,1.73E2,3E0,1.21E2,2E0,1.93E2,1.37E2,4.2E1,7E0,1E0,1.2E1,8.8E1,6.6E1,1.02E2,2.9E1,9.2E1,3.5E1,1.93E2,1.65E2,2.8E1,1.45E2,1E0,2E0,4.6E1,7.5E1,2.7E1,1.66E2,3E0,4E0,6.3E1,2.5E1,5.3E1,1.3E1,9E1,1.2E1,5E0,2.4E1,4E1,5.2E1,1.7E1,1.8E1,5.8E1,1.35E2,1.38E2,2.7E1,2.7E1,1E0,3E0,1.42E2,1E0,1E0,2.7E1,1.9E1,7E0,6.8E1,2E0,2.5E1,3E0,1E0],"tree_param":{"num_deleted":"0","num_feature":"9","num_nodes":"81","size_leaf_vector":"0"}},{"base_weights":[1.9557316E1,9.763064E0,3.0880611E1,2.382077E1,9.440439E0,2.4871887E1,3.5543076E1,1.9868216E-8,2.6996874E1,7.6598563E0,1.0468846E1,2.6946348E1,2.1710182E1,3.6372112E1,2.9343988E1,-2.4017325E-1,2.4017328E-1,2.882229E1,7.205198E-1,5.2475376E0,1.0434475E1,1.3766692E1,9.263851E0,2.7237022E1,7.565458E0,2.2050547E1,6.319298E-1,3.4485138E1,3.8761253E1,3.1346329E1,1.4913408E1,1.2008663E0,3.0854641E1,6.2929945E0,3.7804744E0,1.1615013E1,6.033477E0,1.5355091E1,9.280921E0,8.0058E0,1.1023723E1,2.3684065E1,2.840256E1,-2.4017325E-1,1.0247393E1,1.8770266E1,2.3789003E1,2.8049486E1,3.5357674E1,2.4715729E0,2.1884193E1,7.167524E0,3.8982694E0,4.33826E0,1.3589807E0,1.2463045E1,4.785326E0,3.8968566E-1,7.1466475E0,1.1365384E1,1.815175E1,1.0891021E1,7.2670946E0,1.0586954E1,6.971646E0,1.18036175E1,7.2876124E0,1.5130916E1,2.4017328E-1,2.5797497E1,7.9936285E0,7.4334445E0,2.5340532E1,-0E0,3.020714E1,2.4833424E1,5.043638E0],"categories":[],"categories_nodes":[],"categories_segments":[],"categories_sizes":[],"default_left":[1,1,1,1,1,1,1,1,1,1,1,1,1,1,1,0,0,1,0,1,1,1,1,1,1,1,0,1,0,0,1,0,0,1,1,1,1,1,1,1,1,0,0,0,1,1,1,1,0,0,1,0,0,0,0,0,0,0,0,0,0,0,0,0,0,0,0,0,0,0,0,0,0,0,0,0,0],"id":8,"left_children":[1,3,5,7,9,11,13,15,17,19,21,23,25,27,29,-1,-1,31,-1,33,35,37,39,41,43,45,-1,47,-1,-1,49,-1,-1,51,53,55,57,59,61,63,65,-1,-1,-1,67,69,71,73,-1,-1,75,-1,-1,-1,-1,-1,-1,-1,-1,-1,-1,-1,-1,-1,-1,-1,-1,-1,-1,-1,-1,-1,-1,-1,-1,-1,-1],"loss_changes":[1.6217175E5,3.3444531E3,1.8138438E4,1.2861729E3,1.3316406E3,1.3826406E3,8.8559375E2,2.3073278E-1,6.987119E2,1.8595176E3,1.8037773E3,7.910703E2,8.756797E2,1.5553125E2,9.772656E2,0E0,0E0,7.488574E2,0E0,2.1394092E2,6.157344E2,7.695156E2,7.065762E2,4.7867188E1,8.619791E1,2.4919531E2,0E0,9.7609375E1,0E0,0E0,6.397466E2,0E0,0E0,1.58448E2,8.459961E1,5.3691406E2,1.8569019E2,8.3137695E2,3.758252E1,4.9475488E2,3.423047E2,0E0,0E0,0E0,1.4297742E2,3.3530898E3,1.7402148E3,1.6945898E3,0E0,0E0,1.23082275E2,0E0,0E0,0E0,0E0,0E0,0E0,0E0,0E0,0E0,0E0,0E0,0E0,0E0,0E0,0E0,0E0,0E0,0E0,0E0,0E0,0E0,0E0,0E0,0E0,0E0,0E0],"parents":[2147483647,0,0,1,1,2,2,3,3,4,4,5,5,6,6,7,7,8,8,9,9,10,10,11,11,12,12,13,13,14,14,17,17,19,19,20,20,21,21,22,22,23,23,24,24,25,25,27,27,30,30,33,33,34,34,35,35,36,36,37,37,38,38,39,39,40,40,44,44,45,45,46,46,47,47,50,50],"right_children":[2,4,6,8,10,12,14,16,18,20,22,24,26,28,30,-1,-1,32,-1,34,36,38,40,42,44,46,-1,48,-1,-1,50,-1,-1,52,54,56,58,60,62,64,66,-1,-1,-1,68,70,72,74,-1,-1,76,-1,-1,-1,-1,-1,-1,-1,-1,-1,-1,-1,-1,-1,-1,-1,-1,-1,-1,-1,-1,-1,-1,-1,-1,-1,-1],"split_conditions":[2.29E2,1.25E1,3.045E2,5E-1,2.0215E3,2.05E1,2.45E1,1.4E1,2.5E0,9.35E1,1.55E1,5.5E0,3.025E2,3.265E2,1.75E1,-2.4017324E-3,2.4017328E-3,2.0195E3,7.2051976E-3,1.95E1,2.05E1,8.05E1,6.65E1,2.745E2,7E0,2.02E3,6.319298E-3,8.5E0,3.8761252E-1,3.1346327E-1,5E-1,1.2008663E-2,3.085464E-1,2.0195E3,2.75E1,9.5E0,1.16E2,1.45E1,1.35E1,2.55E1,2.65E1,2.3684065E-1,2.8402558E-1,-2.4017324E-3,1.55E1,4.5E0,2.715E2,3.075E2,3.5357672E-1,2.4715729E-2,1.9E1,7.167523E-2,3.8982693E-2,4.33826E-2,1.3589806E-2,1.2463045E-1,4.7853258E-2,3.8968564E-3,7.1466476E-2,1.1365384E-1,1.815175E-1,1.089102E-1,7.2670944E-2,1.0586954E-1,6.971645E-2,1.1803617E-1,7.2876126E-2,1.5130915E-1,2.4017328E-3,2.5797495E-1,7.993628E-2,7.433444E-2,2.534053E-1,-0E0,3.020714E-1,2.4833423E-1,5.043638E-2],"split_indices":[4,4,4,2,6,7,7,1,2,4,1,2,4,4,1,0,0,6,0,7,7,4,4,4,1,6,0,1,0,0,2,0,0,6,7,1,4,7,1,4,7,0,0,0,1,1,4,4,0,0,1,0,0,0,0,0,0,0,0,0,0,0,0,0,0,0,0,0,0,0,0,0,0,0,0,0,0],"split_type":[0,0,0,0,0,0,0,0,0,0,0,0,0,0,0,0,0,0,0,0,0,0,0,0,0,0,0,0,0,0,0,0,0,0,0,0,0,0,0,0,0,0,0,0,0,0,0,0,0,0,0,0,0,0,0,0,0,0,0,0,0,0,0,0,0,0,0,0,0,0,0,0,0,0,0,0,0],"sum_hessian":[1.464E3,7.86E2,6.78E2,1.6E1,7.7E2,2.99E2,3.79E2,2E0,1.4E1,2.85E2,4.85E2,1.76E2,1.23E2,3.3E2,4.9E1,1E0,1E0,1.3E1,1E0,1.54E2,1.31E2,1.27E2,3.58E2,1.73E2,3E0,1.21E2,2E0,1.93E2,1.37E2,4.2E1,7E0,1E0,1.2E1,8.8E1,6.6E1,1.02E2,2.9E1,9.2E1,3.5E1,2.12E2,1.46E2,4.8E1,1.25E2,1E0,2E0,4.6E1,7.5E1,2.7E1,1.66E2,3E0,4E0,6.3E1,2.5E1,5.3E1,1.3E1,9E1,1.2E1,5E0,2.4E1,4E1,5.2E1,1.7E1,1.8E1,5.8E1,1.54E2,1.19E2,2.7E1,1E0,1E0,2.7E1,1.9E1,7E0,6.8E1,2E0,2.5E1,3E0,1E0],"tree_param":{"num_deleted":"0","num_feature":"9","num_nodes":"77","size_leaf_vector":"0"}},{"base_weights":[1.936489E1,9.667449E0,3.057626E1,2.3601843E1,9.347667E0,2.462765E1,3.5192066E1,2.9802322E-8,2.6748755E1,7.5847106E0,1.0365893E1,2.6680681E1,2.1498499E1,3.6011543E1,2.9063288E1,-2.3897238E-1,2.3897243E-1,2.8556963E1,7.1691716E-1,5.1961436E0,1.0332007E1,1.36327505E1,9.172234E0,2.6967646E1,7.5276303E0,2.1835497E1,6.2771696E-1,3.4143665E1,3.8376446E1,3.1040155E1,1.4804709E1,1.194862E0,3.0569828E1,6.2313085E0,3.74352E0,1.1500538E1,5.975654E0,1.5204715E1,9.193156E0,7.7869415E0,1.0735935E1,2.2100729E1,2.7749651E1,-2.3897238E-1,1.0196156E1,2.2792692E1,1.6448586E1,2.7779778E1,3.5006214E1,2.453036E0,2.1725107E1,7.0969687E0,3.8607862E0,4.295681E0,1.3463615E0,1.2339785E1,4.7411537E0,3.8643834E-1,7.0780396E0,1.1254501E1,1.7973658E1,1.078816E1,7.1982484E0,1.0482879E1,6.560124E0,1.136748E1,7.2173395E0,2.292772E1,-5.27507E-1,1.3516701E1,2.7953722E1,1.5055261E1,2.3897243E-1,2.7904167E1,2.0744125E1,-1.5917381E-2,1.8095833E1,-0E0,2.9916685E1,2.4647173E1,5.01842E0],"categories":[],"categories_nodes":[],"categories_segments":[],"categories_sizes":[],"default_left":[1,1,1,1,1,1,1,1,1,1,1,1,1,1,1,0,0,1,0,1,1,1,1,1,1,1,0,1,0,0,1,0,0,1,1,1,1,1,1,1,1,1,1,0,1,1,1,1,0,0,1,0,0,0,0,0,0,0,0,0,0,0,0,0,0,0,0,0,0,0,0,0,0,0,0,0,0,0,0,0,0],"id":9,"left_children":[1,3,5,7,9,11,13,15,17,19,21,23,25,27,29,-1,-1,31,-1,33,35,37,39,41,43,45,-1,47,-1,-1,49,-1,-1,51,53,55,57,59,61,63,65,67,69,-1,71,73,75,77,-1,-1,79,-1,-1,-1,-1,-1,-1,-1,-1,-1,-1,-1,-1,-1,-1,-1,-1,-1,-1,-1,-1,-1,-1,-1,-1,-1,-1,-1,-1,-1,-1],"loss_changes":[1.5898156E5,3.2862266E3,1.7777E4,1.2626396E3,1.3053828E3,1.3536875E3,8.61875E2,2.2843124E-1,6.855918E2,1.8230742E3,1.7701211E3,7.698281E2,8.584414E2,1.5178125E2,9.498242E2,0E0,0E0,7.3454004E2,0E0,2.0974756E2,6.0322754E2,7.535176E2,6.9406055E2,4.8953125E1,8.533809E1,2.5416016E2,0E0,9.24375E1,0E0,0E0,6.305355E2,0E0,0E0,1.5523389E2,8.2898865E1,5.25792E2,1.8210889E2,8.1494336E2,3.6891846E1,5.7287305E2,2.8683398E2,5.5478125E2,4.6210938E1,0E0,1.4155124E2,4.787461E2,5.9695215E2,1.6621582E3,0E0,0E0,1.2040039E2,0E0,0E0,0E0,0E0,0E0,0E0,0E0,0E0,0E0,0E0,0E0,0E0,0E0,0E0,0E0,0E0,0E0,0E0,0E0,0E0,0E0,0E0,0E0,0E0,0E0,0E0,0E0,0E0,0E0,0E0],"parents":[2147483647,0,0,1,1,2,2,3,3,4,4,5,5,6,6,7,7,8,8,9,9,10,10,11,11,12,12,13,13,14,14,17,17,19,19,20,20,21,21,22,22,23,23,24,24,25,25,27,27,30,30,33,33,34,34,35,35,36,36,37,37,38,38,39,39,40,40,41,41,42,42,44,44,45,45,46,46,47,47,50,50],"right_children":[2,4,6,8,10,12,14,16,18,20,22,24,26,28,30,-1,-1,32,-1,34,36,38,40,42,44,46,-1,48,-1,-1,50,-1,-1,52,54,56,58,60,62,64,66,68,70,-1,72,74,76,78,-1,-1,80,-1,-1,-1,-1,-1,-1,-1,-1,-1,-1,-1,-1,-1,-1,-1,-1,-1,-1,-1,-1,-1,-1,-1,-1,-1,-1,-1,-1,-1,-1],"split_conditions":[2.29E2,1.25E1,3.045E2,5E-1,2.0215E3,2.05E1,2.45E1,1.4E1,2.5E0,9.35E1,1.55E1,5.5E0,3.025E2,3.265E2,1.75E1,-2.3897237E-3,2.3897241E-3,2.0195E3,7.1691712E-3,1.95E1,2.05E1,8.05E1,6.1E1,2.0185E3,7E0,3.5E0,6.2771696E-3,8.5E0,3.8376445E-1,3.1040156E-1,5E-1,1.194862E-2,3.0569828E-1,2.0195E3,2.75E1,9.5E0,1.16E2,1.45E1,1.35E1,2.55E1,2.65E1,2.905E2,2.385E2,-2.3897237E-3,1.55E1,8.5E0,2.69E2,3.075E2,3.5006213E-1,2.453036E-2,1.9E1,7.0969686E-2,3.860786E-2,4.295681E-2,1.34636145E-2,1.2339784E-1,4.7411535E-2,3.8643833E-3,7.07804E-2,1.1254501E-1,1.7973657E-1,1.078816E-1,7.198248E-2,1.0482878E-1,6.560124E-2,1.136748E-1,7.2173394E-2,2.2927718E-1,-5.2750697E-3,1.35167E-1,2.795372E-1,1.505526E-1,2.3897241E-3,2.7904168E-1,2.0744126E-1,-1.5917381E-4,1.8095833E-1,-0E0,2.9916686E-1,2.4647172E-1,5.01842E-2],"split_indices":[4,4,4,2,6,7,7,1,2,4,1,2,4,4,1,0,0,6,0,7,7,4,4,6,1,2,0,1,0,0,2,0,0,6,7,1,4,7,1,4,7,4,4,0,1,1,4,4,0,0,1,0,0,0,0,0,0,0,0,0,0,0,0,0,0,0,0,0,0,0,0,0,0,0,0,0,0,0,0,0,0],"split_type":[0,0,0,0,0,0,0,0,0,0,0,0,0,0,0,0,0,0,0,0,0,0,0,0,0,0,0,0,0,0,0,0,0,0,0,0,0,0,0,0,0,0,0,0,0,0,0,0,0,0,0,0,0,0,0,0,0,0,0,0,0,0,0,0,0,0,0,0,0,0,0,0,0,0,0,0,0,0,0,0,0],"sum_hessian":[1.464E3,7.86E2,6.78E2,1.6E1,7.7E2,2.99E2,3.79E2,2E0,1.4E1,2.85E2,4.85E2,1.76E2,1.23E2,3.3E2,4.9E1,1E0,1E0,1.3E1,1E0,1.54E2,1.31E2,1.27E2,3.58E2,1.73E2,3E0,1.21E2,2E0,1.93E2,1.37E2,4.2E1,7E0,1E0,1.2E1,8.8E1,6.6E1,1.02E2,2.9E1,9.2E1,3.5E1,1.93E2,1.65E2,2.8E1,1.45E2,1E0,2E0,1E2,2.1E1,2.7E1,1.66E2,3E0,4E0,6.3E1,2.5E1,5.3E1,1.3E1,9E1,1.2E1,5E0,2.4E1,4E1,5.2E1,1.7E1,1.8E1,5.8E1,1.35E2,1.38E2,2.7E1,2.7E1,1E0,3E0,1.42E2,1E0,1E0,2.5E1,7.5E1,2E0,1.9E1,2E0,2.5E1,3E0,1E0],"tree_param":{"num_deleted":"0","num_feature":"9","num_nodes":"81","size_leaf_vector":"0"}},{"base_weights":[1.9174444E1,9.572763E0,3.0275103E1,2.3384932E1,9.255798E0,2.4386248E1,3.484453E1,2.9802322E-8,2.6502922E1,7.5103025E0,1.0263939E1,2.761353E1,2.2372488E1,3.5654552E1,2.8785286E1,-2.3777752E-1,2.3777756E-1,2.8294083E1,7.133326E-1,5.145253E0,1.0230547E1,1.3500112E1,9.081504E0,2.7868885E1,-2.3777752E-1,1.8532793E1,2.4558296E1,3.380558E1,3.7995464E1,3.0736973E1,1.4696811E1,1.1888877E0,3.0287645E1,6.170226E0,3.7069266E0,1.1387191E1,5.918386E0,1.505581E1,9.10622E0,7.8463035E0,1.0809505E1,2.4167257E1,7.417904E0,2.592545E1,1.7008804E1,2.7512665E1,3.465825E1,2.4346383E0,2.1567186E1,7.0271077E0,3.8236632E0,4.2535195E0,1.3338596E0,1.2217743E1,4.6973896E0,3.8321796E-1,7.010091E0,1.1144702E1,1.7797312E1,1.0686273E1,7.1300545E0,1.0379827E1,6.831309E0,1.1573837E1,7.147743E0,2.0379356E1,2.987582E1,-1.4127697E-1,1.2151222E1,6.593026E0,1.907175E1,-0E0,2.9629023E1,2.446232E1,4.993328E0],"categories":[],"categories_nodes":[],"categories_segments":[],"categories_sizes":[],"default_left":[1,1,1,1,1,1,1,1,1,1,1,1,1,1,1,0,0,1,0,1,1,1,1,0,0,1,1,1,0,0,1,0,0,1,1,1,1,1,1,1,1,1,1,0,1,1,0,0,1,0,0,0,0,0,0,0,0,0,0,0,0,0,0,0,0,0,0,0,0,0,0,0,0,0,0],"id":10,"left_children":[1,3,5,7,9,11,13,15,17,19,21,23,25,27,29,-1,-1,31,-1,33,35,37,39,-1,-1,41,43,45,-1,-1,47,-1,-1,49,51,53,55,57,59,61,63,65,67,-1,69,71,-1,-1,73,-1,-1,-1,-1,-1,-1,-1,-1,-1,-1,-1,-1,-1,-1,-1,-1,-1,-1,-1,-1,-1,-1,-1,-1,-1,-1],"loss_changes":[1.5585712E5,3.2290078E3,1.7421312E4,1.2395381E3,1.2796484E3,1.3319062E3,8.3871875E2,2.2615263E-1,6.727158E2,1.7873467E3,1.7371094E3,7.960469E2,1.1395078E3,1.481875E2,9.230781E2,0E0,0E0,7.2049414E2,0E0,2.0563525E2,5.9097266E2,7.378535E2,6.8144336E2,0E0,0E0,4.392461E3,7.769531E2,8.7421875E1,0E0,0E0,6.2145764E2,0E0,0E0,1.5208545E2,8.123218E1,5.1490137E2,1.7859668E2,7.988301E2,3.6214355E1,4.7682422E2,3.2869727E2,4.2907812E2,9.319968E2,0E0,3.2549072E2,1.6303457E3,0E0,0E0,1.1776929E2,0E0,0E0,0E0,0E0,0E0,0E0,0E0,0E0,0E0,0E0,0E0,0E0,0E0,0E0,0E0,0E0,0E0,0E0,0E0,0E0,0E0,0E0,0E0,0E0,0E0,0E0],"parents":[2147483647,0,0,1,1,2,2,3,3,4,4,5,5,6,6,7,7,8,8,9,9,10,10,11,11,12,12,13,13,14,14,17,17,19,19,20,20,21,21,22,22,25,25,26,26,27,27,30,30,33,33,34,34,35,35,36,36,37,37,38,38,39,39,40,40,41,41,42,42,44,44,45,45,48,48],"right_children":[2,4,6,8,10,12,14,16,18,20,22,24,26,28,30,-1,-1,32,-1,34,36,38,40,-1,-1,42,44,46,-1,-1,48,-1,-1,50,52,54,56,58,60,62,64,66,68,-1,70,72,-1,-1,74,-1,-1,-1,-1,-1,-1,-1,-1,-1,-1,-1,-1,-1,-1,-1,-1,-1,-1,-1,-1,-1,-1,-1,-1,-1,-1],"split_conditions":[2.29E2,1.25E1,3.045E2,5E-1,2.0215E3,1.35E1,2.45E1,1.4E1,2.5E0,9.35E1,1.55E1,5.5E0,2.02E3,3.265E2,1.75E1,-2.377775E-3,2.3777755E-3,2.0195E3,7.1333256E-3,1.95E1,2.05E1,8.05E1,6.65E1,2.7868885E-1,-2.377775E-3,4.5E0,2.75E1,8.5E0,3.7995464E-1,3.073697E-1,5E-1,1.1888877E-2,3.0287644E-1,2.0195E3,2.75E1,9.5E0,1.16E2,1.45E1,1.35E1,2.55E1,2.65E1,2.72E2,2.0185E3,2.592545E-1,1.5E0,3.075E2,3.4658247E-1,2.4346381E-2,1.9E1,7.0271075E-2,3.8236633E-2,4.2535193E-2,1.3338596E-2,1.2217743E-1,4.6973895E-2,3.8321796E-3,7.01009E-2,1.11447014E-1,1.779731E-1,1.06862724E-1,7.1300544E-2,1.0379826E-1,6.8313085E-2,1.1573837E-1,7.147743E-2,2.0379356E-1,2.987582E-1,-1.4127697E-3,1.2151222E-1,6.593026E-2,1.907175E-1,-0E0,2.9629022E-1,2.446232E-1,4.993328E-2],"split_indices":[4,4,4,2,6,7,7,1,2,4,1,2,6,4,1,0,0,6,0,7,7,4,4,0,0,1,7,1,0,0,2,0,0,6,7,1,4,7,1,4,7,4,6,0,2,4,0,0,1,0,0,0,0,0,0,0,0,0,0,0,0,0,0,0,0,0,0,0,0,0,0,0,0,0,0],"split_type":[0,0,0,0,0,0,0,0,0,0,0,0,0,0,0,0,0,0,0,0,0,0,0,0,0,0,0,0,0,0,0,0,0,0,0,0,0,0,0,0,0,0,0,0,0,0,0,0,0,0,0,0,0,0,0,0,0,0,0,0,0,0,0,0,0,0,0,0,0,0,0,0,0,0,0],"sum_hessian":[1.464E3,7.86E2,6.78E2,1.6E1,7.7E2,2.99E2,3.79E2,2E0,1.4E1,2.85E2,4.85E2,1.1E2,1.89E2,3.3E2,4.9E1,1E0,1E0,1.3E1,1E0,1.54E2,1.31E2,1.27E2,3.58E2,1.09E2,1E0,7.2E1,1.17E2,1.93E2,1.37E2,4.2E1,7E0,1E0,1.2E1,8.8E1,6.6E1,1.02E2,2.9E1,9.2E1,3.5E1,2.12E2,1.46E2,4.7E1,2.5E1,9.7E1,2E1,2.7E1,1.66E2,3E0,4E0,6.3E1,2.5E1,5.3E1,1.3E1,9E1,1.2E1,5E0,2.4E1,4E1,5.2E1,1.7E1,1.8E1,5.8E1,1.54E2,1.19E2,2.7E1,3.1E1,1.6E1,1E1,1.5E1,4E0,1.6E1,2E0,2.5E1,3E0,1E0],"tree_param":{"num_deleted":"0","num_feature":"9","num_nodes":"75","size_leaf_vector":"0"}},{"base_weights":[1.8985853E1,9.4790125E0,2.9976864E1,2.3170017E1,9.164842E0,2.4147102E1,3.4500423E1,3.973643E-8,2.6259352E1,7.436624E0,1.0163001E1,2.7339884E1,2.2154755E1,3.5301094E1,2.850996E1,-2.3658863E-1,2.3658869E-1,2.8033625E1,7.097659E-1,5.094861E0,1.0130083E1,1.3368763E1,8.99169E0,2.759273E1,-2.3658863E-1,1.8355993E1,2.4317085E1,3.3470837E1,3.7618263E1,3.0436752E1,1.4589705E1,1.1829432E0,3.0008066E1,6.109743E0,3.6706915E0,1.12749605E1,5.861666E0,1.4908363E1,9.020107E0,7.631381E0,1.0527282E1,2.3936054E1,7.348345E0,2.566884E1,1.6850937E1,2.7248121E1,3.431374E1,2.4163785E0,2.1410425E1,6.9579344E0,3.7868972E0,4.211772E0,1.3214737E0,1.2096908E1,4.654029E0,3.8002452E-1,6.942794E0,1.1035973E1,1.7622698E1,1.0585347E1,7.0625067E0,1.0277788E1,6.427194E0,1.11462E1,7.078819E0,2.0895277E1,3.1317114E1,-1.3999252E-1,1.2037305E1,6.5402813E0,1.8892252E1,-0E0,2.9344131E1,2.427885E1,4.9683614E0],"categories":[],"categories_nodes":[],"categories_segments":[],"categories_sizes":[],"default_left":[1,1,1,1,1,1,1,1,1,1,1,1,1,1,1,0,0,1,0,1,1,1,1,0,0,1,1,1,0,0,1,0,0,1,1,1,1,1,1,1,1,1,1,0,1,1,0,0,1,0,0,0,0,0,0,0,0,0,0,0,0,0,0,0,0,0,0,0,0,0,0,0,0,0,0],"id":11,"left_children":[1,3,5,7,9,11,13,15,17,19,21,23,25,27,29,-1,-1,31,-1,33,35,37,39,-1,-1,41,43,45,-1,-1,47,-1,-1,49,51,53,55,57,59,61,63,65,67,-1,69,71,-1,-1,73,-1,-1,-1,-1,-1,-1,-1,-1,-1,-1,-1,-1,-1,-1,-1,-1,-1,-1,-1,-1,-1,-1,-1,-1,-1,-1],"loss_changes":[1.5279338E5,3.172789E3,1.7073E4,1.2168584E3,1.2544258E3,1.3026406E3,8.161875E2,2.2389677E-1,6.6008203E2,1.7523164E3,1.7046953E3,7.8047656E2,1.1143281E3,1.446875E2,8.970078E2,0E0,0E0,7.0671387E2,0E0,2.0160425E2,5.789707E2,7.2250977E2,6.6956836E2,0E0,0E0,4.3080137E3,7.583594E2,8.2578125E1,0E0,0E0,6.125112E2,0E0,0E0,1.4900049E2,7.959912E1,5.0423242E2,1.751521E2,7.8303516E2,3.5549072E1,5.521748E2,2.7539648E2,4.2293945E2,9.146106E2,0E0,3.1843262E2,1.5991445E3,0E0,0E0,1.1518799E2,0E0,0E0,0E0,0E0,0E0,0E0,0E0,0E0,0E0,0E0,0E0,0E0,0E0,0E0,0E0,0E0,0E0,0E0,0E0,0E0,0E0,0E0,0E0,0E0,0E0,0E0],"parents":[2147483647,0,0,1,1,2,2,3,3,4,4,5,5,6,6,7,7,8,8,9,9,10,10,11,11,12,12,13,13,14,14,17,17,19,19,20,20,21,21,22,22,25,25,26,26,27,27,30,30,33,33,34,34,35,35,36,36,37,37,38,38,39,39,40,40,41,41,42,42,44,44,45,45,48,48],"right_children":[2,4,6,8,10,12,14,16,18,20,22,24,26,28,30,-1,-1,32,-1,34,36,38,40,-1,-1,42,44,46,-1,-1,48,-1,-1,50,52,54,56,58,60,62,64,66,68,-1,70,72,-1,-1,74,-1,-1,-1,-1,-1,-1,-1,-1,-1,-1,-1,-1,-1,-1,-1,-1,-1,-1,-1,-1,-1,-1,-1,-1,-1,-1],"split_conditions":[2.29E2,1.25E1,3.045E2,5E-1,2.0215E3,1.35E1,2.45E1,1.4E1,2.5E0,9.35E1,1.55E1,5.5E0,2.02E3,3.265E2,1.75E1,-2.3658862E-3,2.3658867E-3,2.0195E3,7.097659E-3,1.95E1,2.05E1,8.05E1,6.1E1,2.7592728E-1,-2.3658862E-3,4.5E0,2.75E1,8.5E0,3.7618262E-1,3.043675E-1,5E-1,1.1829432E-2,3.0008066E-1,2.0195E3,2.75E1,9.5E0,1.16E2,1.45E1,1.35E1,2.55E1,2.65E1,2.91E2,2.0185E3,2.566884E-1,1.5E0,3.075E2,3.4313738E-1,2.4163784E-2,1.9E1,6.957934E-2,3.786897E-2,4.211772E-2,1.3214737E-2,1.2096907E-1,4.6540286E-2,3.8002452E-3,6.942794E-2,1.1035972E-1,1.7622697E-1,1.0585347E-1,7.062507E-2,1.02777876E-1,6.427194E-2,1.11462E-1,7.078819E-2,2.0895277E-1,3.1317112E-1,-1.3999252E-3,1.2037305E-1,6.540281E-2,1.8892251E-1,-0E0,2.934413E-1,2.427885E-1,4.968361E-2],"split_indices":[4,4,4,2,6,7,7,1,2,4,1,2,6,4,1,0,0,6,0,7,7,4,4,0,0,1,7,1,0,0,2,0,0,6,7,1,4,7,1,4,7,4,6,0,2,4,0,0,1,0,0,0,0,0,0,0,0,0,0,0,0,0,0,0,0,0,0,0,0,0,0,0,0,0,0],"split_type":[0,0,0,0,0,0,0,0,0,0,0,0,0,0,0,0,0,0,0,0,0,0,0,0,0,0,0,0,0,0,0,0,0,0,0,0,0,0,0,0,0,0,0,0,0,0,0,0,0,0,0,0,0,0,0,0,0,0,0,0,0,0,0,0,0,0,0,0,0,0,0,0,0,0,0],"sum_hessian":[1.464E3,7.86E2,6.78E2,1.6E1,7.7E2,2.99E2,3.79E2,2E0,1.4E1,2.85E2,4.85E2,1.1E2,1.89E2,3.3E2,4.9E1,1E0,1E0,1.3E1,1E0,1.54E2,1.31E2,1.27E2,3.58E2,1.09E2,1E0,7.2E1,1.17E2,1.93E2,1.37E2,4.2E1,7E0,1E0,1.2E1,8.8E1,6.6E1,1.02E2,2.9E1,9.2E1,3.5E1,1.93E2,1.65E2,4.7E1,2.5E1,9.7E1,2E1,2.7E1,1.66E2,3E0,4E0,6.3E1,2.5E1,5.3E1,1.3E1,9E1,1.2E1,5E0,2.4E1,4E1,5.2E1,1.7E1,1.8E1,5.8E1,1.35E2,1.38E2,2.7E1,3.6E1,1.1E1,1E1,1.5E1,4E0,1.6E1,2E0,2.5E1,3E0,1E0],"tree_param":{"num_deleted":"0","num_feature":"9","num_nodes":"75","size_leaf_vector":"0"}},{"base_weights":[1.879913E1,9.386173E0,2.9681602E1,2.295708E1,9.07477E0,2.3910383E1,3.4159718E1,3.973643E-8,2.6018024E1,7.3636684E0,1.0063043E1,2.7068949E1,2.1939272E1,3.4951145E1,2.8237278E1,-2.3540568E-1,2.3540574E-1,2.7775568E1,7.062171E-1,5.044963E0,1.0030606E1,1.3238693E1,8.902746E0,2.7319311E1,-2.3540568E-1,1.8181217E1,2.4078243E1,3.313941E1,3.7244804E1,3.013946E1,1.4483387E1,1.1770285E0,2.9731068E1,6.0498533E0,3.6348102E0,1.1163837E1,5.8054905E0,1.4762362E1,8.934809E0,7.6899834E0,1.0599451E1,2.3707571E1,7.279437E0,2.541477E1,1.6694538E1,2.698612E1,3.397266E1,2.3982558E0,2.1254816E1,6.8894424E0,3.7504847E0,4.170434E0,1.3092029E0,1.1977268E1,4.6110687E0,3.768576E-1,6.8761425E0,1.0928305E1,1.7449795E1,1.04853735E1,6.995599E0,1.0176752E1,6.6937943E0,1.1348531E1,7.0105586E0,1.997951E1,2.9330538E1,-1.3871983E-1,1.1924456E1,6.487959E0,1.8714441E1,-0E0,2.9061975E1,2.409676E1,4.9435196E0],"categories":[],"categories_nodes":[],"categories_segments":[],"categories_sizes":[],"default_left":[1,1,1,1,1,1,1,1,1,1,1,1,1,1,1,0,0,1,0,1,1,1,1,0,0,1,1,1,0,0,1,0,0,1,1,1,1,1,1,1,1,1,1,0,1,1,0,0,1,0,0,0,0,0,0,0,0,0,0,0,0,0,0,0,0,0,0,0,0,0,0,0,0,0,0],"id":12,"left_children":[1,3,5,7,9,11,13,15,17,19,21,23,25,27,29,-1,-1,31,-1,33,35,37,39,-1,-1,41,43,45,-1,-1,47,-1,-1,49,51,53,55,57,59,61,63,65,67,-1,69,71,-1,-1,73,-1,-1,-1,-1,-1,-1,-1,-1,-1,-1,-1,-1,-1,-1,-1,-1,-1,-1,-1,-1,-1,-1,-1,-1,-1,-1],"loss_changes":[1.497905E5,3.1175469E3,1.6731438E4,1.1945957E3,1.2296875E3,1.273875E3,7.9415625E2,2.216634E-1,6.476826E2,1.7179746E3,1.6728984E3,7.6521875E2,1.0895156E3,1.4121875E2,8.7160156E2,0E0,0E0,6.9319336E2,0E0,1.976521E2,5.67209E2,7.074844E2,6.572051E2,0E0,0E0,4.225463E3,7.402031E2,7.7890625E1,0E0,0E0,6.0369446E2,0E0,0E0,1.4597827E2,7.799866E1,4.9378418E2,1.7177405E2,7.6755664E2,3.4895996E1,4.59542E2,3.1563086E2,4.2020312E2,8.9754834E2,0E0,3.1152393E2,1.568541E3,0E0,0E0,1.12656006E2,0E0,0E0,0E0,0E0,0E0,0E0,0E0,0E0,0E0,0E0,0E0,0E0,0E0,0E0,0E0,0E0,0E0,0E0,0E0,0E0,0E0,0E0,0E0,0E0,0E0,0E0],"parents":[2147483647,0,0,1,1,2,2,3,3,4,4,5,5,6,6,7,7,8,8,9,9,10,10,11,11,12,12,13,13,14,14,17,17,19,19,20,20,21,21,22,22,25,25,26,26,27,27,30,30,33,33,34,34,35,35,36,36,37,37,38,38,39,39,40,40,41,41,42,42,44,44,45,45,48,48],"right_children":[2,4,6,8,10,12,14,16,18,20,22,24,26,28,30,-1,-1,32,-1,34,36,38,40,-1,-1,42,44,46,-1,-1,48,-1,-1,50,52,54,56,58,60,62,64,66,68,-1,70,72,-1,-1,74,-1,-1,-1,-1,-1,-1,-1,-1,-1,-1,-1,-1,-1,-1,-1,-1,-1,-1,-1,-1,-1,-1,-1,-1,-1,-1],"split_conditions":[2.29E2,1.25E1,3.045E2,5E-1,2.0215E3,1.35E1,2.45E1,1.4E1,2.5E0,9.35E1,1.55E1,5.5E0,2.02E3,3.265E2,1.75E1,-2.3540568E-3,2.3540573E-3,2.0195E3,7.062171E-3,1.95E1,2.05E1,8.05E1,6.65E1,2.731931E-1,-2.3540568E-3,4.5E0,2.75E1,8.5E0,3.7244803E-1,3.0139458E-1,5E-1,1.1770285E-2,2.9731068E-1,2.0195E3,2.75E1,9.5E0,1.16E2,1.45E1,1.35E1,2.55E1,2.65E1,2.72E2,2.0185E3,2.541477E-1,1.5E0,3.075E2,3.397266E-1,2.3982558E-2,1.9E1,6.889442E-2,3.7504844E-2,4.1704338E-2,1.3092029E-2,1.1977268E-1,4.6110686E-2,3.768576E-3,6.876142E-2,1.09283045E-1,1.7449795E-1,1.04853734E-1,6.995599E-2,1.0176752E-1,6.693794E-2,1.1348531E-1,7.010558E-2,1.9979508E-1,2.9330537E-1,-1.3871982E-3,1.1924455E-1,6.487959E-2,1.8714441E-1,-0E0,2.9061976E-1,2.4096759E-1,4.9435195E-2],"split_indices":[4,4,4,2,6,7,7,1,2,4,1,2,6,4,1,0,0,6,0,7,7,4,4,0,0,1,7,1,0,0,2,0,0,6,7,1,4,7,1,4,7,4,6,0,2,4,0,0,1,0,0,0,0,0,0,0,0,0,0,0,0,0,0,0,0,0,0,0,0,0,0,0,0,0,0],"split_type":[0,0,0,0,0,0,0,0,0,0,0,0,0,0,0,0,0,0,0,0,0,0,0,0,0,0,0,0,0,0,0,0,0,0,0,0,0,0,0,0,0,0,0,0,0,0,0,0,0,0,0,0,0,0,0,0,0,0,0,0,0,0,0,0,0,0,0,0,0,0,0,0,0,0,0],"sum_hessian":[1.464E3,7.86E2,6.78E2,1.6E1,7.7E2,2.99E2,3.79E2,2E0,1.4E1,2.85E2,4.85E2,1.1E2,1.89E2,3.3E2,4.9E1,1E0,1E0,1.3E1,1E0,1.54E2,1.31E2,1.27E2,3.58E2,1.09E2,1E0,7.2E1,1.17E2,1.93E2,1.37E2,4.2E1,7E0,1E0,1.2E1,8.8E1,6.6E1,1.02E2,2.9E1,9.2E1,3.5E1,2.12E2,1.46E2,4.7E1,2.5E1,9.7E1,2E1,2.7E1,1.66E2,3E0,4E0,6.3E1,2.5E1,5.3E1,1.3E1,9E1,1.2E1,5E0,2.4E1,4E1,5.2E1,1.7E1,1.8E1,5.8E1,1.54E2,1.19E2,2.7E1,3.1E1,1.6E1,1E1,1.5E1,4E0,1.6E1,2E0,2.5E1,3E0,1E0],"tree_param":{"num_deleted":"0","num_feature":"9","num_nodes":"75","size_leaf_vector":"0"}},{"base_weights":[1.8614233E1,9.294251E0,2.9389214E1,2.2746107E1,8.985593E0,2.3675905E1,3.382238E1,2.9802322E-8,2.5778921E1,7.291429E0,9.96408E0,2.68007E1,2.172576E1,3.460466E1,2.7967222E1,-2.3422866E-1,2.342287E-1,2.751989E1,7.02686E-1,4.995553E0,9.932106E0,1.3109889E1,8.8147E0,2.7048601E1,-2.3422866E-1,1.8007774E1,2.3841751E1,3.2811264E1,3.6875057E1,2.9845078E1,1.43778515E1,1.1711434E0,2.9456627E1,5.99055E0,3.59928E0,1.1053809E1,5.749853E0,1.0994416E1,1.6406628E1,7.4789224E0,1.0322688E1,2.348077E1,7.2111754E0,2.5163216E1,1.6539595E1,2.6726639E1,3.3634964E1,2.3802688E0,2.1100348E1,6.8216248E0,3.7144225E0,4.1295023E0,1.2970461E0,1.1858811E1,4.568505E0,3.7371716E-1,6.810132E0,1.2675542E1,7.8740354E0,1.0304684E1,2.1173477E1,1.0076709E1,6.2969494E0,1.0929234E1,6.942957E0,2.048494E1,3.0761177E1,-1.3745883E-1,1.1812663E1,6.4360557E0,1.8538305E1,-0E0,2.8782534E1,2.3916035E1,4.9188023E0],"categories":[],"categories_nodes":[],"categories_segments":[],"categories_sizes":[],"default_left":[1,1,1,1,1,1,1,1,1,1,1,1,1,1,1,0,0,1,0,1,1,1,1,0,0,1,1,1,0,0,1,0,0,1,1,1,1,1,1,1,1,1,1,0,1,1,0,0,1,0,0,0,0,0,0,0,0,0,0,0,0,0,0,0,0,0,0,0,0,0,0,0,0,0,0],"id":13,"left_children":[1,3,5,7,9,11,13,15,17,19,21,23,25,27,29,-1,-1,31,-1,33,35,37,39,-1,-1,41,43,45,-1,-1,47,-1,-1,49,51,53,55,57,59,61,63,65,67,-1,69,71,-1,-1,73,-1,-1,-1,-1,-1,-1,-1,-1,-1,-1,-1,-1,-1,-1,-1,-1,-1,-1,-1,-1,-1,-1,-1,-1,-1,-1],"loss_changes":[1.46846E5,3.0632656E3,1.6397E4,1.1727402E3,1.2054492E3,1.245875E3,7.7271875E2,2.1945229E-1,6.355156E2,1.6843057E3,1.6416836E3,7.502578E2,1.0654297E3,1.3784375E2,8.4683594E2,0E0,0E0,6.799297E2,0E0,1.9377783E2,5.556875E2,7.123125E2,6.4594336E2,0E0,0E0,4.1442266E3,7.2246094E2,7.3359375E1,0E0,0E0,5.950051E2,0E0,0E0,1.4301685E2,7.643042E1,4.8355273E2,1.6846106E2,3.2509863E2,1.1779922E3,5.3222656E2,2.6441406E2,4.1678125E2,8.8080444E2,0E0,3.047622E2,1.5385215E3,0E0,0E0,1.1017236E2,0E0,0E0,0E0,0E0,0E0,0E0,0E0,0E0,0E0,0E0,0E0,0E0,0E0,0E0,0E0,0E0,0E0,0E0,0E0,0E0,0E0,0E0,0E0,0E0,0E0,0E0],"parents":[2147483647,0,0,1,1,2,2,3,3,4,4,5,5,6,6,7,7,8,8,9,9,10,10,11,11,12,12,13,13,14,14,17,17,19,19,20,20,21,21,22,22,25,25,26,26,27,27,30,30,33,33,34,34,35,35,36,36,37,37,38,38,39,39,40,40,41,41,42,42,44,44,45,45,48,48],"right_children":[2,4,6,8,10,12,14,16,18,20,22,24,26,28,30,-1,-1,32,-1,34,36,38,40,-1,-1,42,44,46,-1,-1,48,-1,-1,50,52,54,56,58,60,62,64,66,68,-1,70,72,-1,-1,74,-1,-1,-1,-1,-1,-1,-1,-1,-1,-1,-1,-1,-1,-1,-1,-1,-1,-1,-1,-1,-1,-1,-1,-1,-1,-1],"split_conditions":[2.29E2,1.25E1,3.045E2,5E-1,2.0215E3,1.35E1,2.45E1,1.4E1,2.5E0,9.35E1,1.55E1,5.5E0,2.02E3,3.265E2,1.75E1,-2.3422865E-3,2.342287E-3,2.0195E3,7.02686E-3,1.95E1,2.05E1,2.5E0,6.1E1,2.70486E-1,-2.3422865E-3,4.5E0,2.75E1,8.5E0,3.6875057E-1,2.9845077E-1,5E-1,1.17114335E-2,2.9456627E-1,2.0195E3,2.75E1,9.5E0,1.16E2,2.15E1,1.35E1,2.55E1,2.65E1,2.91E2,2.0185E3,2.5163215E-1,1.5E0,3.075E2,3.3634964E-1,2.3802688E-2,1.9E1,6.821625E-2,3.7144225E-2,4.129502E-2,1.2970461E-2,1.1858811E-1,4.5685045E-2,3.7371714E-3,6.810132E-2,1.2675542E-1,7.874035E-2,1.03046834E-1,2.1173477E-1,1.0076708E-1,6.296949E-2,1.09292336E-1,6.942957E-2,2.0484939E-1,3.0761176E-1,-1.3745882E-3,1.1812663E-1,6.436055E-2,1.8538305E-1,-0E0,2.8782532E-1,2.3916034E-1,4.918802E-2],"split_indices":[4,4,4,2,6,7,7,1,2,4,1,2,6,4,1,0,0,6,0,7,7,2,4,0,0,1,7,1,0,0,2,0,0,6,7,1,4,7,1,4,7,4,6,0,2,4,0,0,1,0,0,0,0,0,0,0,0,0,0,0,0,0,0,0,0,0,0,0,0,0,0,0,0,0,0],"split_type":[0,0,0,0,0,0,0,0,0,0,0,0,0,0,0,0,0,0,0,0,0,0,0,0,0,0,0,0,0,0,0,0,0,0,0,0,0,0,0,0,0,0,0,0,0,0,0,0,0,0,0,0,0,0,0,0,0,0,0,0,0,0,0,0,0,0,0,0,0,0,0,0,0,0,0],"sum_hessian":[1.464E3,7.86E2,6.78E2,1.6E1,7.7E2,2.99E2,3.79E2,2E0,1.4E1,2.85E2,4.85E2,1.1E2,1.89E2,3.3E2,4.9E1,1E0,1E0,1.3E1,1E0,1.54E2,1.31E2,1.27E2,3.58E2,1.09E2,1E0,7.2E1,1.17E2,1.93E2,1.37E2,4.2E1,7E0,1E0,1.2E1,8.8E1,6.6E1,1.02E2,2.9E1,8E1,4.7E1,1.93E2,1.65E2,4.7E1,2.5E1,9.7E1,2E1,2.7E1,1.66E2,3E0,4E0,6.3E1,2.5E1,5.3E1,1.3E1,9E1,1.2E1,5E0,2.4E1,5E1,3E1,2.2E1,2.5E1,5.8E1,1.35E2,1.38E2,2.7E1,3.6E1,1.1E1,1E1,1.5E1,4E0,1.6E1,2E0,2.5E1,3E0,1E0],"tree_param":{"num_deleted":"0","num_feature":"9","num_nodes":"75","size_leaf_vector":"0"}},{"base_weights":[1.8431213E1,9.203305E0,2.9099743E1,2.2537075E1,8.897368E0,2.344381E1,3.3488373E1,2.9802322E-8,2.5542019E1,7.219898E0,9.866215E0,2.5152502E1,2.0079294E1,3.4261616E1,2.7699762E1,-2.3305751E-1,2.3305756E-1,2.7266567E1,6.991726E-1,4.946627E0,9.834574E0,1.2982855E1,8.727507E0,2.5394411E1,7.252724E0,2.562612E1,1.7859161E1,3.2486366E1,3.6508976E1,2.9553568E1,1.4273092E1,1.1652877E0,2.918472E1,5.9318285E0,3.5640972E0,1.0944866E1,5.6947494E0,1.0887009E1,1.6249119E1,7.5367775E0,1.0393478E1,2.1775055E1,2.6482336E1,-2.3305751E-1,9.82567E0,2.6708277E1,7.7053804E0,4.0680633E0,2.1574978E1,2.646965E1,3.330063E1,2.3624167E0,2.0947016E1,6.754474E0,3.678707E0,4.088972E0,1.2850021E0,1.1741526E1,4.5263343E0,3.7060285E-1,6.744755E0,1.2551271E1,7.7978354E0,2.2121635E1,1.1264406E1,9.97765E0,6.5590467E0,1.1127609E1,6.876007E0,2.2242298E1,-5.5993044E-1,1.4740356E1,-1.8507242E-3,2.1052318E0,1.8718098E1,6.6994085E0,2.3346424E1,-0E0,2.8505777E1,2.3736664E1,4.894208E0],"categories":[],"categories_nodes":[],"categories_segments":[],"categories_sizes":[],"default_left":[1,1,1,1,1,1,1,1,1,1,1,1,1,1,1,0,0,1,0,1,1,1,1,1,1,1,1,1,0,0,1,0,0,1,1,1,1,1,1,1,1,1,0,0,1,0,0,1,1,1,0,0,1,0,0,0,0,0,0,0,0,0,0,0,0,0,0,0,0,0,0,0,0,0,0,0,0,0,0,0,0],"id":14,"left_children":[1,3,5,7,9,11,13,15,17,19,21,23,25,27,29,-1,-1,31,-1,33,35,37,39,41,43,45,47,49,-1,-1,51,-1,-1,53,55,57,59,61,63,65,67,69,-1,-1,71,-1,-1,73,75,77,-1,-1,79,-1,-1,-1,-1,-1,-1,-1,-1,-1,-1,-1,-1,-1,-1,-1,-1,-1,-1,-1,-1,-1,-1,-1,-1,-1,-1,-1,-1],"loss_changes":[1.4395881E5,3.0098906E3,1.60689375E4,1.1512852E3,1.1818008E3,1.219625E3,7.5184375E2,2.1726325E-1,6.235752E2,1.6512988E3,1.6114805E3,6.601953E2,8.476914E2,1.345E2,8.226992E2,0E0,0E0,6.669199E2,0E0,1.8997925E2,5.4439844E2,6.993301E2,6.338242E2,1.7936719E2,7.9332016E1,3.3720898E2,3.9606035E3,6.896875E1,0E0,0E0,5.864418E2,0E0,0E0,1.4011548E2,7.489374E1,4.735332E2,1.6521179E2,3.1856348E2,1.1559072E3,4.428838E2,3.0308105E2,5.3424805E2,0E0,0E0,1.449248E2,0E0,0E0,4.781939E2,1.477373E3,1.5090762E3,0E0,0E0,1.0773633E2,0E0,0E0,0E0,0E0,0E0,0E0,0E0,0E0,0E0,0E0,0E0,0E0,0E0,0E0,0E0,0E0,0E0,0E0,0E0,0E0,0E0,0E0,0E0,0E0,0E0,0E0,0E0,0E0],"parents":[2147483647,0,0,1,1,2,2,3,3,4,4,5,5,6,6,7,7,8,8,9,9,10,10,11,11,12,12,13,13,14,14,17,17,19,19,20,20,21,21,22,22,23,23,24,24,25,25,26,26,27,27,30,30,33,33,34,34,35,35,36,36,37,37,38,38,39,39,40,40,41,41,44,44,47,47,48,48,49,49,52,52],"right_children":[2,4,6,8,10,12,14,16,18,20,22,24,26,28,30,-1,-1,32,-1,34,36,38,40,42,44,46,48,50,-1,-1,52,-1,-1,54,56,58,60,62,64,66,68,70,-1,-1,72,-1,-1,74,76,78,-1,-1,80,-1,-1,-1,-1,-1,-1,-1,-1,-1,-1,-1,-1,-1,-1,-1,-1,-1,-1,-1,-1,-1,-1,-1,-1,-1,-1,-1,-1],"split_conditions":[2.29E2,1.25E1,3.045E2,5E-1,2.0215E3,2.15E1,2.45E1,1.4E1,2.5E0,9.35E1,1.55E1,5.5E0,8.5E0,3.265E2,1.75E1,-2.3305751E-3,2.3305756E-3,2.0195E3,6.991726E-3,1.95E1,2.05E1,2.5E0,6.65E1,2.745E2,7E0,4E0,2.02E3,8.5E0,3.6508974E-1,2.9553568E-1,5E-1,1.1652877E-2,2.918472E-1,2.0195E3,2.75E1,9.5E0,1.16E2,2.15E1,5.55E1,2.55E1,2.65E1,2.05E1,2.6482335E-1,-2.3305751E-3,1.55E1,2.6708275E-1,7.70538E-2,5E0,2.715E2,3.075E2,3.330063E-1,2.3624167E-2,1.9E1,6.754474E-2,3.6787067E-2,4.088972E-2,1.2850021E-2,1.1741526E-1,4.5263343E-2,3.7060285E-3,6.744754E-2,1.255127E-1,7.797835E-2,2.2121635E-1,1.1264406E-1,9.977649E-2,6.559046E-2,1.1127609E-1,6.876007E-2,2.2242297E-1,-5.599304E-3,1.4740357E-1,-1.8507242E-5,2.1052318E-2,1.8718097E-1,6.6994086E-2,2.3346424E-1,-0E0,2.8505775E-1,2.3736663E-1,4.8942078E-2],"split_indices":[4,4,4,2,6,7,7,1,2,4,1,2,1,4,1,0,0,6,0,7,7,2,4,4,1,2,6,1,0,0,2,0,0,6,7,1,4,7,4,4,7,7,0,0,1,0,0,2,4,4,0,0,1,0,0,0,0,0,0,0,0,0,0,0,0,0,0,0,0,0,0,0,0,0,0,0,0,0,0,0,0],"split_type":[0,0,0,0,0,0,0,0,0,0,0,0,0,0,0,0,0,0,0,0,0,0,0,0,0,0,0,0,0,0,0,0,0,0,0,0,0,0,0,0,0,0,0,0,0,0,0,0,0,0,0,0,0,0,0,0,0,0,0,0,0,0,0,0,0,0,0,0,0,0,0,0,0,0,0,0,0,0,0,0,0],"sum_hessian":[1.464E3,7.86E2,6.78E2,1.6E1,7.7E2,2.99E2,3.79E2,2E0,1.4E1,2.85E2,4.85E2,1.94E2,1.05E2,3.3E2,4.9E1,1E0,1E0,1.3E1,1E0,1.54E2,1.31E2,1.27E2,3.58E2,1.91E2,3E0,2.7E1,7.8E1,1.93E2,1.37E2,4.2E1,7E0,1E0,1.2E1,8.8E1,6.6E1,1.02E2,2.9E1,8E1,4.7E1,2.12E2,1.46E2,4.9E1,1.42E2,1E0,2E0,2.5E1,2E0,1.7E1,6.1E1,2.7E1,1.66E2,3E0,4E0,6.3E1,2.5E1,5.3E1,1.3E1,9E1,1.2E1,5E0,2.4E1,5E1,3E1,2E1,2.7E1,5.8E1,1.54E2,1.19E2,2.7E1,4.8E1,1E0,1E0,1E0,1.6E1,1E0,7E0,5.4E1,2E0,2.5E1,3E0,1E0],"tree_param":{"num_deleted":"0","num_feature":"9","num_nodes":"81","size_leaf_vector":"0"}},{"base_weights":[1.8250078E1,9.113287E0,2.8813265E1,2.232997E1,8.810048E0,2.3214304E1,3.3157673E1,1.9868216E-8,2.5307299E1,7.14907E0,9.769369E0,2.6285774E1,2.1297737E1,3.392197E1,2.7434874E1,-2.3189223E-1,2.3189226E-1,2.701558E1,6.956767E-1,4.898181E0,9.738E0,1.2857224E1,8.641194E0,2.6528952E1,-2.3189223E-1,1.7651667E1,2.3372868E1,3.2164692E1,3.6146534E1,2.9264904E1,1.4169103E1,1.1594613E0,2.8915323E1,5.8736825E0,3.5292583E0,1.0836997E1,5.6401734E0,1.0780651E1,1.6093584E1,7.3295045E0,1.0122077E1,2.3022026E1,7.0582485E0,2.467273E1,1.6193851E1,2.6215136E1,3.296962E1,2.3446984E0,2.0794806E1,6.687985E0,3.6433349E0,4.0488396E0,1.2730699E0,1.16254015E1,4.4845524E0,3.675145E-1,6.680005E0,1.242822E1,7.722372E0,1.0070048E1,2.0803112E1,9.879564E0,6.169335E0,1.0716497E1,6.809703E0,2.0060547E1,3.023475E1,-1.9581518E-1,1.1604277E1,6.3309717E0,1.8142118E1,-0E0,2.8231684E1,2.3558638E1,4.869737E0],"categories":[],"categories_nodes":[],"categories_segments":[],"categories_sizes":[],"default_left":[1,1,1,1,1,1,1,1,1,1,1,1,1,1,1,0,0,1,0,1,1,1,1,0,0,1,1,1,0,0,1,0,0,1,1,1,1,1,1,1,1,1,1,0,1,1,0,0,1,0,0,0,0,0,0,0,0,0,0,0,0,0,0,0,0,0,0,0,0,0,0,0,0,0,0],"id":15,"left_children":[1,3,5,7,9,11,13,15,17,19,21,23,25,27,29,-1,-1,31,-1,33,35,37,39,-1,-1,41,43,45,-1,-1,47,-1,-1,49,51,53,55,57,59,61,63,65,67,-1,69,71,-1,-1,73,-1,-1,-1,-1,-1,-1,-1,-1,-1,-1,-1,-1,-1,-1,-1,-1,-1,-1,-1,-1,-1,-1,-1,-1,-1,-1],"loss_changes":[1.4112988E5,2.957414E3,1.5746375E4,1.1302227E3,1.1586797E3,1.2061719E3,7.314375E2,2.1509606E-1,6.118594E2,1.6189365E3,1.5819453E3,7.219453E2,1.0249844E3,1.313125E2,7.991836E2,0E0,0E0,6.541533E2,0E0,1.8625537E2,5.3333984E2,6.8672656E2,6.2315234E2,0E0,0E0,3.9905098E3,7.0159766E2,6.475E1,0E0,0E0,5.780023E2,0E0,0E0,1.372732E2,7.338782E1,4.6371973E2,1.6202533E2,3.121621E2,1.1521768E3,5.12999E2,2.5386719E2,4.1876953E2,8.5967896E2,0E0,2.8866895E2,1.4801953E3,0E0,0E0,1.0534668E2,0E0,0E0,0E0,0E0,0E0,0E0,0E0,0E0,0E0,0E0,0E0,0E0,0E0,0E0,0E0,0E0,0E0,0E0,0E0,0E0,0E0,0E0,0E0,0E0,0E0,0E0],"parents":[2147483647,0,0,1,1,2,2,3,3,4,4,5,5,6,6,7,7,8,8,9,9,10,10,11,11,12,12,13,13,14,14,17,17,19,19,20,20,21,21,22,22,25,25,26,26,27,27,30,30,33,33,34,34,35,35,36,36,37,37,38,38,39,39,40,40,41,41,42,42,44,44,45,45,48,48],"right_children":[2,4,6,8,10,12,14,16,18,20,22,24,26,28,30,-1,-1,32,-1,34,36,38,40,-1,-1,42,44,46,-1,-1,48,-1,-1,50,52,54,56,58,60,62,64,66,68,-1,70,72,-1,-1,74,-1,-1,-1,-1,-1,-1,-1,-1,-1,-1,-1,-1,-1,-1,-1,-1,-1,-1,-1,-1,-1,-1,-1,-1,-1,-1],"split_conditions":[2.29E2,1.25E1,3.045E2,5E-1,2.0215E3,1.35E1,2.45E1,1.4E1,2.5E0,9.35E1,1.55E1,5.5E0,2.02E3,3.265E2,1.75E1,-2.3189222E-3,2.3189224E-3,2.0195E3,6.956767E-3,1.95E1,2.05E1,2.5E0,6.1E1,2.6528952E-1,-2.3189222E-3,4.5E0,2.75E1,8.5E0,3.6146533E-1,2.9264903E-1,5E-1,1.1594612E-2,2.8915322E-1,2.0195E3,2.75E1,9.5E0,1.16E2,2.15E1,1.35E1,2.55E1,2.65E1,2.91E2,2.0185E3,2.4672729E-1,1.5E0,3.075E2,3.2969618E-1,2.3446985E-2,1.9E1,6.6879846E-2,3.6433347E-2,4.0488396E-2,1.2730698E-2,1.1625401E-1,4.484552E-2,3.6751449E-3,6.680005E-2,1.24282196E-1,7.722372E-2,1.0070048E-1,2.0803112E-1,9.879564E-2,6.1693348E-2,1.0716497E-1,6.8097025E-2,2.0060547E-1,3.023475E-1,-1.9581518E-3,1.1604276E-1,6.3309714E-2,1.8142118E-1,-0E0,2.8231683E-1,2.3558637E-1,4.869737E-2],"split_indices":[4,4,4,2,6,7,7,1,2,4,1,2,6,4,1,0,0,6,0,7,7,2,4,0,0,1,7,1,0,0,2,0,0,6,7,1,4,7,1,4,7,4,6,0,2,4,0,0,1,0,0,0,0,0,0,0,0,0,0,0,0,0,0,0,0,0,0,0,0,0,0,0,0,0,0],"split_type":[0,0,0,0,0,0,0,0,0,0,0,0,0,0,0,0,0,0,0,0,0,0,0,0,0,0,0,0,0,0,0,0,0,0,0,0,0,0,0,0,0,0,0,0,0,0,0,0,0,0,0,0,0,0,0,0,0,0,0,0,0,0,0,0,0,0,0,0,0,0,0,0,0,0,0],"sum_hessian":[1.464E3,7.86E2,6.78E2,1.6E1,7.7E2,2.99E2,3.79E2,2E0,1.4E1,2.85E2,4.85E2,1.1E2,1.89E2,3.3E2,4.9E1,1E0,1E0,1.3E1,1E0,1.54E2,1.31E2,1.27E2,3.58E2,1.09E2,1E0,7.2E1,1.17E2,1.93E2,1.37E2,4.2E1,7E0,1E0,1.2E1,8.8E1,6.6E1,1.02E2,2.9E1,8E1,4.7E1,1.93E2,1.65E2,4.7E1,2.5E1,9.7E1,2E1,2.7E1,1.66E2,3E0,4E0,6.3E1,2.5E1,5.3E1,1.3E1,9E1,1.2E1,5E0,2.4E1,5E1,3E1,2.2E1,2.5E1,5.8E1,1.35E2,1.38E2,2.7E1,3.6E1,1.1E1,1E1,1.5E1,4E0,1.6E1,2E0,2.5E1,3E0,1E0],"tree_param":{"num_deleted":"0","num_feature":"9","num_nodes":"75","size_leaf_vector":"0"}},{"base_weights":[1.8070639E1,9.024113E0,2.8529469E1,2.2124771E1,8.723549E0,2.2986732E1,3.283024E1,1.9868216E-8,2.507474E1,7.078936E0,9.673416E0,2.6025286E1,2.1090593E1,3.358569E1,2.7172531E1,-2.3073277E-1,2.307328E-1,2.6766907E1,6.9219834E-1,4.850209E0,9.642373E0,1.2732638E1,8.555717E0,2.6266073E1,-2.3073277E-1,1.7483603E1,2.3143305E1,3.1846199E1,3.5787685E1,2.897906E1,1.4065879E1,1.1536639E0,2.8648413E1,5.8161063E0,3.49476E0,1.0730191E1,5.586121E0,1.4226658E1,8.519404E0,7.386623E0,1.0191508E1,2.1156866E1,2.7302958E1,2.2802284E1,6.992054E0,1.3787436E1,2.407239E1,2.5963066E1,3.2641895E1,2.9693382E1,1.45910635E1,2.3271132E0,2.0643715E1,6.62215E0,3.6083028E0,4.009101E0,1.2612485E0,1.1510425E1,4.4431567E0,3.6445186E-1,6.615877E0,1.041331E1,1.6908178E1,1.0098304E1,6.575216E0,4.5965924E0,8.17041E0,1.0910989E1,6.7440376E0,-8.5033673E-1,2.3293283E1,1.9865362E1,2.99576E1,-1.9403507E-1,1.1495486E1,2.3212883E1,4.994921E0,2.4446653E1,8.416963E0,-0E0,2.7960226E1,2.338195E1,4.8453884E0],"categories":[],"categories_nodes":[],"categories_segments":[],"categories_sizes":[],"default_left":[1,1,1,1,1,1,1,1,1,1,1,1,1,1,1,0,0,1,0,1,1,1,1,1,0,1,1,1,0,1,1,0,0,1,1,1,1,1,1,1,1,1,0,1,1,1,1,1,0,0,0,0,1,0,0,0,0,0,0,0,0,0,0,0,0,0,0,0,0,0,0,0,0,0,0,0,0,0,0,0,0,0,0],"id":16,"left_children":[1,3,5,7,9,11,13,15,17,19,21,23,25,27,29,-1,-1,31,-1,33,35,37,39,41,-1,43,45,47,-1,49,51,-1,-1,53,55,57,59,61,63,65,67,69,-1,71,73,75,77,79,-1,-1,-1,-1,81,-1,-1,-1,-1,-1,-1,-1,-1,-1,-1,-1,-1,-1,-1,-1,-1,-1,-1,-1,-1,-1,-1,-1,-1,-1,-1,-1,-1,-1,-1],"loss_changes":[1.383551E5,2.905879E3,1.5431375E4,1.1095459E3,1.1359531E3,1.1795625E3,7.1153125E2,2.1295047E-1,6.003613E2,1.587208E3,1.5528359E3,7.078281E2,1.00215625E3,1.2815625E2,7.762578E2,0E0,0E0,6.4163086E2,0E0,1.8260425E2,5.225049E2,6.845117E2,6.112676E2,5.09375E0,0E0,3.9140547E3,6.938047E2,6.06875E1,0E0,8.6875E0,5.696853E2,0E0,0E0,1.3448853E2,7.191217E1,4.5410938E2,1.589002E2,7.749082E2,4.4109863E1,4.282295E2,2.9103418E2,1.1011865E3,0E0,4.1358203E2,8.4364417E2,9.614075E2,4.153203E2,1.4518652E3,0E0,0E0,0E0,0E0,1.0300293E2,0E0,0E0,0E0,0E0,0E0,0E0,0E0,0E0,0E0,0E0,0E0,0E0,0E0,0E0,0E0,0E0,0E0,0E0,0E0,0E0,0E0,0E0,0E0,0E0,0E0,0E0,0E0,0E0,0E0,0E0],"parents":[2147483647,0,0,1,1,2,2,3,3,4,4,5,5,6,6,7,7,8,8,9,9,10,10,11,11,12,12,13,13,14,14,17,17,19,19,20,20,21,21,22,22,23,23,25,25,26,26,27,27,29,29,30,30,33,33,34,34,35,35,36,36,37,37,38,38,39,39,40,40,41,41,43,43,44,44,45,45,46,46,47,47,52,52],"right_children":[2,4,6,8,10,12,14,16,18,20,22,24,26,28,30,-1,-1,32,-1,34,36,38,40,42,-1,44,46,48,-1,50,52,-1,-1,54,56,58,60,62,64,66,68,70,-1,72,74,76,78,80,-1,-1,-1,-1,82,-1,-1,-1,-1,-1,-1,-1,-1,-1,-1,-1,-1,-1,-1,-1,-1,-1,-1,-1,-1,-1,-1,-1,-1,-1,-1,-1,-1,-1,-1],"split_conditions":[2.29E2,1.25E1,3.045E2,5E-1,2.0215E3,1.35E1,2.45E1,1.4E1,2.5E0,9.35E1,1.55E1,5.5E0,2.02E3,3.265E2,1.75E1,-2.3073277E-3,2.307328E-3,2.0195E3,6.9219833E-3,1.95E1,2.05E1,8.05E1,6.65E1,5E-1,-2.3073277E-3,4.5E0,2.715E2,8.5E0,3.5787684E-1,4.5E0,5E-1,1.1536638E-2,2.8648412E-1,2.0195E3,2.75E1,9.5E0,1.16E2,1.45E1,1.35E1,5E-1,2.65E1,6.5E0,2.7302957E-1,2.91E2,2.0185E3,1.5E1,3.015E2,3.075E2,3.2641894E-1,2.9693383E-1,1.4591064E-1,2.327113E-2,1.9E1,6.62215E-2,3.6083028E-2,4.0091008E-2,1.2612484E-2,1.1510424E-1,4.4431567E-2,3.6445186E-3,6.615877E-2,1.041331E-1,1.6908178E-1,1.0098304E-1,6.5752156E-2,4.5965925E-2,8.17041E-2,1.09109886E-1,6.7440376E-2,-8.503367E-3,2.3293284E-1,1.9865362E-1,2.9957598E-1,-1.9403506E-3,1.1495486E-1,2.3212883E-1,4.994921E-2,2.4446653E-1,8.4169626E-2,-0E0,2.7960226E-1,2.338195E-1,4.8453882E-2],"split_indices":[4,4,4,2,6,7,7,1,2,4,1,2,6,4,1,0,0,6,0,7,7,4,4,2,0,1,4,1,0,2,2,0,0,6,7,1,4,7,1,2,7,1,0,4,6,1,4,4,0,0,0,0,1,0,0,0,0,0,0,0,0,0,0,0,0,0,0,0,0,0,0,0,0,0,0,0,0,0,0,0,0,0,0],"split_type":[0,0,0,0,0,0,0,0,0,0,0,0,0,0,0,0,0,0,0,0,0,0,0,0,0,0,0,0,0,0,0,0,0,0,0,0,0,0,0,0,0,0,0,0,0,0,0,0,0,0,0,0,0,0,0,0,0,0,0,0,0,0,0,0,0,0,0,0,0,0,0,0,0,0,0,0,0,0,0,0,0,0,0],"sum_hessian":[1.464E3,7.86E2,6.78E2,1.6E1,7.7E2,2.99E2,3.79E2,2E0,1.4E1,2.85E2,4.85E2,1.1E2,1.89E2,3.3E2,4.9E1,1E0,1E0,1.3E1,1E0,1.54E2,1.31E2,1.27E2,3.58E2,1.09E2,1E0,7.2E1,1.17E2,1.93E2,1.37E2,4.2E1,7E0,1E0,1.2E1,8.8E1,6.6E1,1.02E2,2.9E1,9.2E1,3.5E1,2.12E2,1.46E2,2.2E1,8.7E1,4.7E1,2.5E1,1.2E1,1.05E2,2.7E1,1.66E2,3.9E1,3E0,3E0,4E0,6.3E1,2.5E1,5.3E1,1.3E1,9E1,1.2E1,5E0,2.4E1,4E1,5.2E1,1.7E1,1.8E1,4.8E1,1.64E2,1.19E2,2.7E1,2E0,2E1,3.6E1,1.1E1,1E1,1.5E1,5E0,7E0,1.02E2,3E0,2E0,2.5E1,3E0,1E0],"tree_param":{"num_deleted":"0","num_feature":"9","num_nodes":"83","size_leaf_vector":"0"}},{"base_weights":[1.7893251E1,8.935694E0,2.8249226E1,2.1921461E1,8.637776E0,2.2762589E1,3.250644E1,9.934108E-9,2.4844322E1,7.0094905E0,9.578213E0,2.5769493E1,2.088612E1,3.3252747E1,2.6915775E1,-2.295791E-1,2.2957912E-1,2.6520525E1,6.8873733E-1,4.8027067E0,9.547688E0,1.2608749E1,8.471007E0,2.6007935E1,-2.295791E-1,1.731714E1,2.2917046E1,3.153086E1,3.5432404E1,2.8699568E1,1.3963413E1,1.1478956E0,2.8383966E1,5.7590947E0,3.4605992E0,1.0624438E1,5.5325866E0,1.055006E1,1.5820104E1,7.183122E0,9.925096E0,2.0955055E1,2.703303E1,2.258464E1,6.9264803E0,2.419499E1,1.5862017E1,2.571342E1,3.2317432E1,2.9403872E1,1.4481631E1,2.30966E0,2.0493732E1,6.556963E0,3.5736074E0,3.9697523E0,1.2495369E0,1.1396585E1,4.402143E0,3.6141476E-1,6.5523643E0,1.2182653E1,7.5238576E0,9.852351E0,2.0490805E1,9.710605E0,6.033824E0,1.0507581E1,6.679006E0,-8.4466773E-1,2.3071442E1,1.8981928E1,2.803771E1,-1.9227113E-1,1.1387716E1,6.2039285E0,1.7769571E1,-0E0,2.7691378E1,2.3206585E1,4.8211613E0],"categories":[],"categories_nodes":[],"categories_segments":[],"categories_sizes":[],"default_left":[1,1,1,1,1,1,1,1,1,1,1,1,1,1,1,0,0,1,0,1,1,1,1,1,0,1,1,1,0,1,1,0,0,1,1,1,1,1,1,1,1,1,0,1,1,0,1,1,0,0,0,0,1,0,0,0,0,0,0,0,0,0,0,0,0,0,0,0,0,0,0,0,0,0,0,0,0,0,0,0,0],"id":17,"left_children":[1,3,5,7,9,11,13,15,17,19,21,23,25,27,29,-1,-1,31,-1,33,35,37,39,41,-1,43,45,47,-1,49,51,-1,-1,53,55,57,59,61,63,65,67,69,-1,71,73,-1,75,77,-1,-1,-1,-1,79,-1,-1,-1,-1,-1,-1,-1,-1,-1,-1,-1,-1,-1,-1,-1,-1,-1,-1,-1,-1,-1,-1,-1,-1,-1,-1,-1,-1],"loss_changes":[1.3564725E5,2.855289E3,1.512E4,1.089248E3,1.1134961E3,1.1544844E3,6.9046875E2,2.1082628E-1,5.890781E2,1.5561025E3,1.5239297E3,6.9408594E2,9.803281E2,1.250625E2,7.5447656E2,0E0,0E0,6.293447E2,0E0,1.7902441E2,5.1189062E2,6.793281E2,6.0100586E2,3.2890625E0,0E0,3.8390605E3,6.8010156E2,5.671875E1,0E0,4.7734375E0,5.614883E2,0E0,0E0,1.3176001E2,7.046619E1,4.446963E2,1.5583527E2,3.085244E2,1.1360488E3,5.049453E2,2.436914E2,1.0806299E3,0E0,4.1079297E2,8.2790894E2,0E0,2.7664893E2,1.4240801E3,0E0,0E0,0E0,0E0,1.00704346E2,0E0,0E0,0E0,0E0,0E0,0E0,0E0,0E0,0E0,0E0,0E0,0E0,0E0,0E0,0E0,0E0,0E0,0E0,0E0,0E0,0E0,0E0,0E0,0E0,0E0,0E0,0E0,0E0],"parents":[2147483647,0,0,1,1,2,2,3,3,4,4,5,5,6,6,7,7,8,8,9,9,10,10,11,11,12,12,13,13,14,14,17,17,19,19,20,20,21,21,22,22,23,23,25,25,26,26,27,27,29,29,30,30,33,33,34,34,35,35,36,36,37,37,38,38,39,39,40,40,41,41,43,43,44,44,46,46,47,47,52,52],"right_children":[2,4,6,8,10,12,14,16,18,20,22,24,26,28,30,-1,-1,32,-1,34,36,38,40,42,-1,44,46,48,-1,50,52,-1,-1,54,56,58,60,62,64,66,68,70,-1,72,74,-1,76,78,-1,-1,-1,-1,80,-1,-1,-1,-1,-1,-1,-1,-1,-1,-1,-1,-1,-1,-1,-1,-1,-1,-1,-1,-1,-1,-1,-1,-1,-1,-1,-1,-1],"split_conditions":[2.29E2,1.25E1,3.045E2,5E-1,2.0215E3,1.35E1,2.45E1,1.4E1,2.5E0,9.35E1,1.55E1,5.5E0,2.02E3,3.265E2,1.75E1,-2.295791E-3,2.2957912E-3,2.0195E3,6.887373E-3,1.95E1,2.05E1,2.5E0,6.1E1,5E-1,-2.295791E-3,4.5E0,2.75E1,8.5E0,3.54324E-1,4.5E0,5E-1,1.1478956E-2,2.8383967E-1,2.0195E3,2.75E1,9.5E0,1.16E2,2.15E1,1.35E1,2.55E1,2.65E1,6.5E0,2.7033028E-1,2.72E2,2.0185E3,2.419499E-1,1.5E0,3.075E2,3.2317433E-1,2.940387E-1,1.4481631E-1,2.3096599E-2,1.9E1,6.556963E-2,3.5736073E-2,3.969752E-2,1.2495369E-2,1.13965854E-1,4.4021428E-2,3.6141474E-3,6.552364E-2,1.2182653E-1,7.523857E-2,9.852351E-2,2.0490804E-1,9.710605E-2,6.033824E-2,1.0507581E-1,6.679006E-2,-8.446678E-3,2.3071441E-1,1.8981928E-1,2.803771E-1,-1.9227113E-3,1.1387716E-1,6.2039282E-2,1.776957E-1,-0E0,2.7691376E-1,2.3206584E-1,4.821161E-2],"split_indices":[4,4,4,2,6,7,7,1,2,4,1,2,6,4,1,0,0,6,0,7,7,2,4,2,0,1,7,1,0,2,2,0,0,6,7,1,4,7,1,4,7,1,0,4,6,0,2,4,0,0,0,0,1,0,0,0,0,0,0,0,0,0,0,0,0,0,0,0,0,0,0,0,0,0,0,0,0,0,0,0,0],"split_type":[0,0,0,0,0,0,0,0,0,0,0,0,0,0,0,0,0,0,0,0,0,0,0,0,0,0,0,0,0,0,0,0,0,0,0,0,0,0,0,0,0,0,0,0,0,0,0,0,0,0,0,0,0,0,0,0,0,0,0,0,0,0,0,0,0,0,0,0,0,0,0,0,0,0,0,0,0,0,0,0,0],"sum_hessian":[1.464E3,7.86E2,6.78E2,1.6E1,7.7E2,2.99E2,3.79E2,2E0,1.4E1,2.85E2,4.85E2,1.1E2,1.89E2,3.3E2,4.9E1,1E0,1E0,1.3E1,1E0,1.54E2,1.31E2,1.27E2,3.58E2,1.09E2,1E0,7.2E1,1.17E2,1.93E2,1.37E2,4.2E1,7E0,1E0,1.2E1,8.8E1,6.6E1,1.02E2,2.9E1,8E1,4.7E1,1.93E2,1.65E2,2.2E1,8.7E1,4.7E1,2.5E1,9.7E1,2E1,2.7E1,1.66E2,3.9E1,3E0,3E0,4E0,6.3E1,2.5E1,5.3E1,1.3E1,9E1,1.2E1,5E0,2.4E1,5E1,3E1,2.2E1,2.5E1,5.8E1,1.35E2,1.38E2,2.7E1,2E0,2E1,3.1E1,1.6E1,1E1,1.5E1,4E0,1.6E1,2E0,2.5E1,3E0,1E0],"tree_param":{"num_deleted":"0","num_feature":"9","num_nodes":"81","size_leaf_vector":"0"}},{"base_weights":[1.7717571E1,8.848258E0,2.7971521E1,2.1720022E1,8.552969E0,2.2540142E1,3.218584E1,9.934108E-9,2.4616026E1,6.9407268E0,9.4841385E0,2.5516216E1,2.0682858E1,3.2923103E1,2.6661463E1,-2.2843121E-1,2.2843122E-1,2.6276415E1,6.852937E-1,4.75567E0,9.453931E0,1.2486572E1,8.387215E0,2.5752335E1,-2.2843121E-1,1.7151943E1,2.2691957E1,3.1218645E1,3.5080647E1,2.842278E1,1.38617E1,1.1421561E0,2.812196E1,5.702642E0,3.426772E0,1.0519728E1,5.479565E0,1.3962756E1,8.326246E0,2.4300706E0,8.676225E0,2.0755169E1,2.6765772E1,2.236859E1,6.8615212E0,1.3503278E1,2.3604797E1,2.5466177E1,3.1996193E1,2.9117186E1,1.4373018E1,2.2923374E0,2.034485E1,6.492418E0,3.5392458E0,3.93079E0,1.237934E0,1.1283873E1,4.361508E0,3.5840297E-1,6.489462E0,1.0179171E1,1.6626232E1,9.911169E0,6.386517E0,5.8212543E0,-2.5716037E-1,1.2465529E1,8.11866E0,-8.3903664E-1,2.2851715E1,1.9475151E1,2.9425974E1,-1.9052328E-1,1.1280956E1,2.2847801E1,4.806976E0,2.397307E1,8.220564E0,-0E0,2.7425114E1,2.3032536E1,4.7970557E0],"categories":[],"categories_nodes":[],"categories_segments":[],"categories_sizes":[],"default_left":[1,1,1,1,1,1,1,1,1,1,1,1,1,1,1,0,0,1,0,1,1,1,1,1,0,1,1,1,0,1,1,0,0,1,1,1,1,1,1,1,1,1,0,1,1,1,1,1,0,0,0,0,1,0,0,0,0,0,0,0,0,0,0,0,0,0,0,0,0,0,0,0,0,0,0,0,0,0,0,0,0,0,0],"id":18,"left_children":[1,3,5,7,9,11,13,15,17,19,21,23,25,27,29,-1,-1,31,-1,33,35,37,39,41,-1,43,45,47,-1,49,51,-1,-1,53,55,57,59,61,63,65,67,69,-1,71,73,75,77,79,-1,-1,-1,-1,81,-1,-1,-1,-1,-1,-1,-1,-1,-1,-1,-1,-1,-1,-1,-1,-1,-1,-1,-1,-1,-1,-1,-1,-1,-1,-1,-1,-1,-1,-1],"loss_changes":[1.3298766E5,2.8055352E3,1.48165625E4,1.0693213E3,1.0916523E3,1.1304844E3,6.6990625E2,2.0872328E-1,5.7800684E2,1.5256074E3,1.4958828E3,6.80625E2,9.586406E2,1.2209375E2,7.332383E2,0E0,0E0,6.17291E2,0E0,1.7551465E2,5.014912E2,6.6984375E2,5.9699805E2,1.546875E0,0E0,3.7652656E3,6.7101953E2,5.2890625E1,0E0,1.0195312E0,5.534103E2,0E0,0E0,1.2908716E2,6.9049194E1,4.3548047E2,1.528294E2,7.679668E2,4.7377686E1,1.6552908E2,6.2136914E2,1.060458E3,0E0,4.070879E2,8.124667E2,9.4658765E2,4.0348047E2,1.3968262E3,0E0,0E0,0E0,0E0,9.844922E1,0E0,0E0,0E0,0E0,0E0,0E0,0E0,0E0,0E0,0E0,0E0,0E0,0E0,0E0,0E0,0E0,0E0,0E0,0E0,0E0,0E0,0E0,0E0,0E0,0E0,0E0,0E0,0E0,0E0,0E0],"parents":[2147483647,0,0,1,1,2,2,3,3,4,4,5,5,6,6,7,7,8,8,9,9,10,10,11,11,12,12,13,13,14,14,17,17,19,19,20,20,21,21,22,22,23,23,25,25,26,26,27,27,29,29,30,30,33,33,34,34,35,35,36,36,37,37,38,38,39,39,40,40,41,41,43,43,44,44,45,45,46,46,47,47,52,52],"right_children":[2,4,6,8,10,12,14,16,18,20,22,24,26,28,30,-1,-1,32,-1,34,36,38,40,42,-1,44,46,48,-1,50,52,-1,-1,54,56,58,60,62,64,66,68,70,-1,72,74,76,78,80,-1,-1,-1,-1,82,-1,-1,-1,-1,-1,-1,-1,-1,-1,-1,-1,-1,-1,-1,-1,-1,-1,-1,-1,-1,-1,-1,-1,-1,-1,-1,-1,-1,-1,-1],"split_conditions":[2.29E2,1.25E1,3.045E2,5E-1,2.0215E3,1.35E1,2.45E1,1.4E1,2.5E0,9.35E1,1.55E1,5.5E0,2.02E3,3.265E2,1.75E1,-2.2843122E-3,2.2843122E-3,2.0195E3,6.8529365E-3,1.95E1,2.05E1,8.05E1,1.85E1,5E-1,-2.2843122E-3,4.5E0,2.715E2,8.5E0,3.5080644E-1,4.5E0,5E-1,1.1421561E-2,2.812196E-1,2.0195E3,2.75E1,9.5E0,1.16E2,1.45E1,1.35E1,5E-1,2.55E1,6.5E0,2.6765773E-1,2.91E2,2.0185E3,1.5E1,3.015E2,3.075E2,3.1996194E-1,2.9117185E-1,1.4373018E-1,2.2923375E-2,1.9E1,6.492417E-2,3.539246E-2,3.93079E-2,1.237934E-2,1.1283872E-1,4.3615077E-2,3.5840296E-3,6.489462E-2,1.017917E-1,1.6626231E-1,9.911169E-2,6.386517E-2,5.821254E-2,-2.5716035E-3,1.2465529E-1,8.11866E-2,-8.390366E-3,2.2851714E-1,1.947515E-1,2.9425973E-1,-1.9052328E-3,1.1280956E-1,2.28478E-1,4.8069756E-2,2.397307E-1,8.220564E-2,-0E0,2.7425113E-1,2.3032536E-1,4.7970556E-2],"split_indices":[4,4,4,2,6,7,7,1,2,4,1,2,6,4,1,0,0,6,0,7,7,4,4,2,0,1,4,1,0,2,2,0,0,6,7,1,4,7,1,2,4,1,0,4,6,1,4,4,0,0,0,0,1,0,0,0,0,0,0,0,0,0,0,0,0,0,0,0,0,0,0,0,0,0,0,0,0,0,0,0,0,0,0],"split_type":[0,0,0,0,0,0,0,0,0,0,0,0,0,0,0,0,0,0,0,0,0,0,0,0,0,0,0,0,0,0,0,0,0,0,0,0,0,0,0,0,0,0,0,0,0,0,0,0,0,0,0,0,0,0,0,0,0,0,0,0,0,0,0,0,0,0,0,0,0,0,0,0,0,0,0,0,0,0,0,0,0,0,0],"sum_hessian":[1.464E3,7.86E2,6.78E2,1.6E1,7.7E2,2.99E2,3.79E2,2E0,1.4E1,2.85E2,4.85E2,1.1E2,1.89E2,3.3E2,4.9E1,1E0,1E0,1.3E1,1E0,1.54E2,1.31E2,1.27E2,3.58E2,1.09E2,1E0,7.2E1,1.17E2,1.93E2,1.37E2,4.2E1,7E0,1E0,1.2E1,8.8E1,6.6E1,1.02E2,2.9E1,9.2E1,3.5E1,1.7E1,3.41E2,2.2E1,8.7E1,4.7E1,2.5E1,1.2E1,1.05E2,2.7E1,1.66E2,3.9E1,3E0,3E0,4E0,6.3E1,2.5E1,5.3E1,1.3E1,9E1,1.2E1,5E0,2.4E1,4E1,5.2E1,1.7E1,1.8E1,7E0,1E1,4.1E1,3E2,2E0,2E1,3.6E1,1.1E1,1E1,1.5E1,5E0,7E0,1.02E2,3E0,2E0,2.5E1,3E0,1E0],"tree_param":{"num_deleted":"0","num_feature":"9","num_nodes":"83","size_leaf_vector":"0"}},{"base_weights":[1.7543627E1,8.761516E0,2.7696762E1,2.152044E1,8.468826E0,2.2320354E1,3.1868406E1,1.9868216E-8,2.4389832E1,6.8726373E0,9.390722E0,2.5265427E1,2.0482336E1,3.2596725E1,2.640957E1,-2.2728905E-1,2.2728908E-1,2.6034554E1,6.818672E-1,4.709094E0,9.361096E0,1.2365073E1,8.30407E0,2.5499245E1,-2.2728905E-1,1.6988642E1,2.247011E1,3.0909523E1,3.4732384E1,2.8148664E1,1.37607355E1,1.1364453E0,2.7862373E1,5.646743E0,3.3932757E0,1.041605E1,5.4270525E0,1.0324115E1,1.5551586E1,7.1548133E0,9.912831E0,2.2155092E1,6.7971716E0,2.3726507E1,1.5536918E1,2.5221312E1,3.1678148E1,2.275145E0,2.0197062E1,6.4285083E0,3.5052147E0,3.8922098E0,1.226439E0,1.0770591E1,-1.0514863E0,3.554163E-1,6.427163E0,1.2233091E1,7.723356E0,9.63902E0,2.0183796E1,4.3921914E0,7.9318657E0,1.0618078E1,6.536314E0,1.9285664E1,2.9156237E1,-1.8879128E-1,1.1175198E1,2.4239254E1,1.596277E1,6.0797596E0,1.74045E1,-0E0,2.7161413E1,2.285979E1,4.7730703E0],"categories":[],"categories_nodes":[],"categories_segments":[],"categories_sizes":[],"default_left":[1,1,1,1,1,1,1,1,1,1,1,1,1,1,1,0,0,1,0,1,1,1,1,0,0,1,1,1,0,0,1,0,0,1,1,1,1,1,1,1,1,1,1,1,1,1,0,0,1,0,0,0,0,0,0,0,0,0,0,0,0,0,0,0,0,0,0,0,0,0,0,0,0,0,0,0,0],"id":19,"left_children":[1,3,5,7,9,11,13,15,17,19,21,23,25,27,29,-1,-1,31,-1,33,35,37,39,-1,-1,41,43,45,-1,-1,47,-1,-1,49,51,53,55,57,59,61,63,65,67,69,71,73,-1,-1,75,-1,-1,-1,-1,-1,-1,-1,-1,-1,-1,-1,-1,-1,-1,-1,-1,-1,-1,-1,-1,-1,-1,-1,-1,-1,-1,-1,-1],"loss_changes":[1.3038547E5,2.7567188E3,1.4517594E4,1.0497593E3,1.0700039E3,1.1064375E3,6.499375E2,2.0664129E-1,5.6714355E2,1.49571E3,1.4681094E3,6.674219E2,9.3775E2,1.19125E2,7.1253125E2,0E0,0E0,6.0546484E2,0E0,1.7207446E2,4.9130176E2,6.718965E2,5.928242E2,0E0,0E0,3.6931309E3,6.592383E2,4.9234375E1,0E0,0E0,5.454487E2,0E0,0E0,1.2646802E2,6.7660706E1,4.3009473E2,1.4988153E2,